{"learner":{"attributes":{"scikit_learn":"{\"_estimator_type\": \"classifier\"}"},"feature_names":[],"feature_types":[],"gradient_booster":{"model":{"gbtree_model_param":{"num_parallel_tree":"1","num_trees":"302"},"iteration_indptr":[0,1,2,3,4,5,6,7,8,9,10,11,12,13,14,15,16,17,18,19,20,21,22,23,24,25,26,27,28,29,30,31,32,33,34,35,36,37,38,39,40,41,42,43,44,45,46,47,48,49,50,51,52,53,54,55,56,57,58,59,60,61,62,63,64,65,66,67,68,69,70,71,72,73,74,75,76,77,78,79,80,81,82,83,84,85,86,87,88,89,90,91,92,93,94,95,96,97,98,99,100,101,102,103,104,105,106,107,108,109,110,111,112,113,114,115,116,117,118,119,120,121,122,123,124,125,126,127,128,129,130,131,132,133,134,135,136,137,138,139,140,141,142,143,144,145,146,147,148,149,150,151,152,153,154,155,156,157,158,159,160,161,162,163,164,165,166,167,168,169,170,171,172,173,174,175,176,177,178,179,180,181,182,183,184,185,186,187,188,189,190,191,192,193,194,195,196,197,198,199,200,201,202,203,204,205,206,207,208,209,210,211,212,213,214,215,216,217,218,219,220,221,222,223,224,225,226,227,228,229,230,231,232,233,234,235,236,237,238,239,240,241,242,243,244,245,246,247,248,249,250,251,252,253,254,255,256,257,258,259,260,261,262,263,264,265,266,267,268,269,270,271,272,273,274,275,276,277,278,279,280,281,282,283,284,285,286,287,288,289,290,291,292,293,294,295,296,297,298,299,300,301,302],"tree_info":[0,0,0,0,0,0,0,0,0,0,0,0,0,0,0,0,0,0,0,0,0,0,0,0,0,0,0,0,0,0,0,0,0,0,0,0,0,0,0,0,0,0,0,0,0,0,0,0,0,0,0,0,0,0,0,0,0,0,0,0,0,0,0,0,0,0,0,0,0,0,0,0,0,0,0,0,0,0,0,0,0,0,0,0,0,0,0,0,0,0,0,0,0,0,0,0,0,0,0,0,0,0,0,0,0,0,0,0,0,0,0,0,0,0,0,0,0,0,0,0,0,0,0,0,0,0,0,0,0,0,0,0,0,0,0,0,0,0,0,0,0,0,0,0,0,0,0,0,0,0,0,0,0,0,0,0,0,0,0,0,0,0,0,0,0,0,0,0,0,0,0,0,0,0,0,0,0,0,0,0,0,0,0,0,0,0,0,0,0,0,0,0,0,0,0,0,0,0,0,0,0,0,0,0,0,0,0,0,0,0,0,0,0,0,0,0,0,0,0,0,0,0,0,0,0,0,0,0,0,0,0,0,0,0,0,0,0,0,0,0,0,0,0,0,0,0,0,0,0,0,0,0,0,0,0,0,0,0,0,0,0,0,0,0,0,0,0,0,0,0,0,0,0,0,0,0,0,0,0,0,0,0,0,0,0,0,0,0,0,0,0,0,0,0,0,0,0,0,0,0,0,0],"trees":[{"base_weights":[9.730866E-5,-1.8183103E0,1.5676688E0,-1.878162E0,1.1625172E0,4.8942247E-1,1.7731438E0,-1.1877804E0,-2.0489357E0,2.1794227E-1,1.749348E0,2.927494E-1,-4.4368736E-2,1.8369043E0,-1.8272393E0,-1.194975E0,2.5688836E-1,-2.0842206E0,1.6712956E0,5.896652E-1,-1.735314E0,1.7611741E0,1.2366418E-1,-8.0385315E-1,1.6958231E0,5.938955E-1,1.8434612E0,3.0784103E-1,-3.4558877E-1,-1.1975996E0,2.0222627E-1,-1.9061805E0,-2.1378162E0,1.8148311E0,-1.2706344E0,-1.848661E-1,1.3444234E0,-3.180176E-1,-1.2593582E-1,1.2518302E0,2.9164332E-1,-1.5099412E0,7.3267186E-1,3.024477E-1,-1.670434E0,-1.1753436E0,2.9556626E-1,1.8663924E0,1.6296588E0,-1.6426386E0,1.4658912E0,-1.1992348E0,-7.318828E-1,-2.016779E0,7.847821E-1,-3.4750766E-1,-1.7232305E0,2.9825678E-1,5.173917E-2,-4.8533227E-2,-2.4855697E-1,7.233035E-1,-2.720504E-1,2.764614E-1,-1.0737283E0,-4.8533227E-2,2.3476146E-1,-6.53911E-1,-2.0180466E0,-5.9976417E-1,1.7320735E0,-9.686116E-1,-3.2511568E-1,1.8194667E-1,-1.3618745E0,3.0306005E-1,1.1999171E0,3.0192807E-1,4.21884E-1,-2.89833E-1,-7.846832E-2,4.9236095E-1,2.8034323E-1,-2.7120697E-1,-1.9426504E-1,1.930067E-1,-2.0091565E-1,-2.0870287E0,-1.6571649E0,-3.2099983E-1,1.2440512E0,2.5688836E-1,-3.3648002E-1,1.0040275E0,-2.408842E-1,-2.6102862E-1,1.5420692E-2,-1.327198E0,2.8588724E-1,-3.476184E-1,-1.0400714E0,1.4394628E0,-3.425495E-1,3.013855E-1,-1.3026059E0,-3.00191E-1,2.100295E-1,-3.1987995E-1,-6.9557434E-1,2.7988315E-1,-5.529001E-1,-1.9577103E0,1.7273426E0,2.1671946E-1,-1.4357208E-1,-1.9377453E0,-3.4301046E-1,2.7830976E-1,-1.9102352E0,8.906987E-1,2.532095E-1,1.143206E0,-9.808101E-2,-1.0208122E-1,-3.4465352E-1,2.8444025E-1,-3.3985737E-1,2.9470456E-1,1.0037262E0,-3.00191E-1,1.6843398E-1,2.4572535E-1,-3.0956927E-1,-2.408842E-1,1.6843398E-1,-3.4020472E-1,2.100295E-1,2.9921272E-1,9.0572685E-1,-3.1789744E-1,1.8194667E-1,-1.6024044E0,-3.465423E-1,1.2794762E0,-1.0838655E0,5.0157213E-1,2.1826603E-1,-1.9317804E-1,1.6843398E-1,-3.028391E-1,2.9671714E-1,-3.0179852E-1,2.9196307E-1,-2.4855697E-1,1.4506569E0,-2.9524878E-1,2.7083245E-1,8.76733E-1,2.4485216E-1,-2.408842E-1,-5.529001E-1,3.384283E-2,1.3381135E-1,3.941593E-2,2.648045E-1,1.7937206E-1,6.288667E-2,9.6234055E-3,-1.9317804E-1],"categories":[],"categories_nodes":[],"categories_segments":[],"categories_sizes":[],"default_left":[0,0,0,0,0,0,0,0,0,0,0,0,0,0,0,0,0,0,0,0,0,0,0,0,0,0,0,0,0,0,0,0,0,0,0,0,0,0,0,0,0,0,0,0,0,0,0,0,0,0,0,0,0,0,0,0,0,0,0,0,0,0,0,0,0,0,0,0,0,0,0,0,0,0,0,0,0,0,0,0,0,0,0,0,0,0,0,0,0,0,0,0,0,0,0,0,0,0,0,0,0,0,0,0,0,0,0,0,0,0,0,0,0,0,0,0,0,0,0,0,0,0,0,0,0,0,0,0,0,0,0,0,0,0,0,0,0,0,0,0,0,0,0,0,0,0,0,0,0,0,0,0,0,0,0,0,0,0,0,0,0,0,0,0,0,0,0,0,0],"id":0,"left_children":[1,3,5,7,9,11,13,15,17,19,21,-1,23,25,27,29,-1,31,33,35,37,39,-1,41,43,45,47,49,-1,51,-1,53,55,57,59,61,63,-1,-1,65,-1,67,69,-1,71,73,-1,75,77,79,81,83,85,87,89,-1,91,-1,-1,-1,-1,93,-1,-1,95,-1,-1,97,99,101,103,105,-1,-1,107,-1,109,-1,111,-1,-1,113,-1,-1,-1,-1,-1,115,117,-1,119,-1,-1,121,-1,-1,-1,123,-1,-1,125,127,-1,-1,129,-1,-1,-1,131,-1,133,135,137,-1,-1,139,-1,-1,141,143,-1,145,147,149,-1,-1,-1,-1,151,-1,-1,-1,-1,-1,-1,-1,-1,-1,153,-1,-1,155,-1,157,159,161,-1,-1,-1,-1,-1,-1,-1,-1,163,-1,-1,165,-1,-1,167,-1,-1,-1,-1,-1,-1,-1,-1],"loss_changes":[7.382872E4,2.1414453E3,3.080832E3,1.3834922E3,1.3079047E2,1.563012E3,2.6852852E3,4.840576E1,1.2403828E3,6.7693E1,3.6083984E-1,0E0,2.0965686E3,9.246875E1,1.3208539E2,1.6407227E1,0E0,8.499219E1,3.992433E1,4.578078E1,1.6905289E0,3.5992432E-1,0E0,1.1991962E3,2.7514465E2,1.3613437E2,5.2945312E1,6.1433163E1,0E0,8.935547E-1,0E0,6.471294E2,6.1152344E0,2.329773E0,7.412796E-1,5.446633E1,3.617447E1,0E0,0E0,4.264185E0,0E0,3.279159E2,4.6493634E2,0E0,3.5225677E0,1.261356E1,0E0,3.7070312E0,3.095166E2,8.299713E-1,3.4566765E0,5.1342773E-1,1.1877944E1,4.9180664E1,1.1201642E2,0E0,7.467912E1,0E0,0E0,0E0,0E0,1.706699E1,0E0,0E0,3.7312942E0,0E0,0E0,4.6324677E2,5.5201904E1,4.65319E2,7.794678E1,2.1250965E1,0E0,0E0,8.526264E0,0E0,1.582844E1,0E0,5.6226013E2,0E0,0E0,6.9628034E0,0E0,0E0,0E0,0E0,0E0,2.7543945E0,2.980003E2,0E0,6.947769E0,0E0,0E0,3.6242905E0,0E0,0E0,0E0,2.1657077E2,0E0,0E0,1.662637E2,8.74585E0,0E0,0E0,1.2755642E1,0E0,0E0,0E0,3.8211575E1,0E0,8.182068E0,3.1608658E1,9.473389E0,0E0,0E0,1.9688843E1,0E0,0E0,1.8856323E1,3.0234081E1,0E0,1.9655056E0,5.5625677E0,3.050197E2,0E0,0E0,0E0,0E0,7.643584E1,0E0,0E0,0E0,0E0,0E0,0E0,0E0,0E0,0E0,2.4038681E1,0E0,0E0,1.02177704E2,0E0,1.617096E0,6.083827E-1,4.407009E-1,0E0,0E0,0E0,0E0,0E0,0E0,0E0,0E0,2.6492863E0,0E0,0E0,1.1297379E0,0E0,0E0,1.8199596E0,0E0,0E0,0E0,0E0,0E0,0E0,0E0,0E0],"parents":[2147483647,0,0,1,1,2,2,3,3,4,4,5,5,6,6,7,7,8,8,9,9,10,10,12,12,13,13,14,14,15,15,17,17,18,18,19,19,20,20,21,21,23,23,24,24,25,25,26,26,27,27,29,29,31,31,32,32,33,33,34,34,35,35,36,36,39,39,41,41,42,42,44,44,45,45,47,47,48,48,49,49,50,50,51,51,52,52,53,53,54,54,56,56,61,61,64,64,67,67,68,68,69,69,70,70,71,71,74,74,76,76,78,78,81,81,87,87,88,88,90,90,93,93,97,97,100,100,101,101,104,104,108,108,110,110,111,111,112,112,115,115,118,118,119,119,121,121,122,122,123,123,128,128,138,138,141,141,143,143,144,144,145,145,154,154,157,157,160,160],"right_children":[2,4,6,8,10,12,14,16,18,20,22,-1,24,26,28,30,-1,32,34,36,38,40,-1,42,44,46,48,50,-1,52,-1,54,56,58,60,62,64,-1,-1,66,-1,68,70,-1,72,74,-1,76,78,80,82,84,86,88,90,-1,92,-1,-1,-1,-1,94,-1,-1,96,-1,-1,98,100,102,104,106,-1,-1,108,-1,110,-1,112,-1,-1,114,-1,-1,-1,-1,-1,116,118,-1,120,-1,-1,122,-1,-1,-1,124,-1,-1,126,128,-1,-1,130,-1,-1,-1,132,-1,134,136,138,-1,-1,140,-1,-1,142,144,-1,146,148,150,-1,-1,-1,-1,152,-1,-1,-1,-1,-1,-1,-1,-1,-1,154,-1,-1,156,-1,158,160,162,-1,-1,-1,-1,-1,-1,-1,-1,164,-1,-1,166,-1,-1,168,-1,-1,-1,-1,-1,-1,-1,-1],"split_conditions":[-7.913954E-3,-5.08779E-3,-5.08779E-3,-1.8487751E0,-7.917674E-3,-7.885645E-3,1.1099351E-4,-6.098847E-1,1.2377733E0,1.2377733E0,2.878175E-2,2.927494E-1,-7.674871E-3,-7.342211E-1,2.878175E-2,-1.0862525E-1,2.5688836E-1,5.0837904E-1,-1.0900584E-1,-5.05712E-3,-5.0495705E-3,-5.0814203E-3,1.2366418E-1,1.2377733E0,-1.0596116E-1,-1.0443882E-1,-7.7583394E-3,3.8033295E-1,-3.4558877E-1,-1.09767005E-1,2.0222627E-1,-6.098847E-1,-3.6270308E-1,-1.09767005E-1,-1.0862525E-1,-7.918645E-3,1.7592944E-2,-3.180176E-1,-1.2593582E-1,-7.916865E-3,2.9164332E-1,-7.751869E-3,-7.864616E-3,3.024477E-1,-3.4791775E-2,-7.900527E-3,2.9556626E-1,5.5442023E0,-4.6463776E-3,-7.342211E-1,-1.09767005E-1,-2.220293E0,-1.0900584E-1,-7.91735E-3,-1.1057391E0,-3.4750766E-1,3.8033295E-1,2.9825678E-1,5.173917E-2,-4.8533227E-2,-2.4855697E-1,-5.0722193E-3,-2.720504E-1,2.764614E-1,-1.0596116E-1,-4.8533227E-2,2.3476146E-1,-7.828705E-3,-7.748634E-3,-7.866881E-3,-1.0862525E-1,-1.05199985E-1,-3.2511568E-1,1.8194667E-1,-7.896968E-3,3.0306005E-1,-7.894057E-3,3.0192807E-1,-4.364921E-3,-2.89833E-1,-7.846832E-2,-4.993185E-3,2.8034323E-1,-2.7120697E-1,-1.9426504E-1,1.930067E-1,-2.0091565E-1,-1.4772571E0,-7.9158945E-3,-3.2099983E-1,4.8601377E-1,2.5688836E-1,-3.3648002E-1,-1.0786408E-1,-2.408842E-1,-2.6102862E-1,1.5420692E-2,-7.834691E-3,2.8588724E-1,-3.476184E-1,-7.6794005E-3,-7.879013E-3,-3.425495E-1,3.013855E-1,-1.08244665E-1,-3.00191E-1,2.100295E-1,-3.1987995E-1,-1.4772571E0,2.7988315E-1,-7.858793E-3,-7.6271514E-3,2.878175E-2,2.1671946E-1,-1.4357208E-1,-1.09767005E-1,-3.4301046E-1,2.7830976E-1,3.8480487E0,1.2816939E-1,2.532095E-1,-1.4772571E0,-1.074835E-1,-7.883865E-3,-3.4465352E-1,2.8444025E-1,-3.3985737E-1,2.9470456E-1,-7.878689E-3,-3.00191E-1,1.6843398E-1,2.4572535E-1,-3.0956927E-1,-2.408842E-1,1.6843398E-1,-3.4020472E-1,2.100295E-1,2.9921272E-1,-3.483039E-3,-3.1789744E-1,1.8194667E-1,-7.914277E-3,-3.465423E-1,-9.548335E-2,2.6236105E-1,-1.0900584E-1,2.1826603E-1,-1.9317804E-1,1.6843398E-1,-3.028391E-1,2.9671714E-1,-3.0179852E-1,2.9196307E-1,-2.4855697E-1,1.7186584E-1,-2.9524878E-1,2.7083245E-1,-2.967708E-1,2.4485216E-1,-2.408842E-1,3.5182214E-1,3.384283E-2,1.3381135E-1,3.941593E-2,2.648045E-1,1.7937206E-1,6.288667E-2,9.6234055E-3,-1.9317804E-1],"split_indices":[4,5,5,3,4,4,4,13,8,8,9,0,4,3,9,0,0,13,0,5,5,5,0,8,0,0,4,3,0,0,0,13,3,0,0,4,5,0,0,4,0,4,4,0,0,4,0,0,5,3,0,3,0,4,3,0,3,0,0,0,0,5,0,0,0,0,0,4,4,4,0,0,0,0,4,0,4,0,5,0,0,5,0,0,0,0,0,3,4,0,13,0,0,0,0,0,0,4,0,0,4,4,0,0,0,0,0,0,3,0,4,4,9,0,0,0,0,0,6,13,0,3,0,4,0,0,0,0,4,0,0,0,0,0,0,0,0,0,5,0,0,4,0,13,13,0,0,0,0,0,0,0,0,0,0,0,0,13,0,0,13,0,0,0,0,0,0,0,0],"split_type":[0,0,0,0,0,0,0,0,0,0,0,0,0,0,0,0,0,0,0,0,0,0,0,0,0,0,0,0,0,0,0,0,0,0,0,0,0,0,0,0,0,0,0,0,0,0,0,0,0,0,0,0,0,0,0,0,0,0,0,0,0,0,0,0,0,0,0,0,0,0,0,0,0,0,0,0,0,0,0,0,0,0,0,0,0,0,0,0,0,0,0,0,0,0,0,0,0,0,0,0,0,0,0,0,0,0,0,0,0,0,0,0,0,0,0,0,0,0,0,0,0,0,0,0,0,0,0,0,0,0,0,0,0,0,0,0,0,0,0,0,0,0,0,0,0,0,0,0,0,0,0,0,0,0,0,0,0,0,0,0,0,0,0,0,0,0,0,0,0],"sum_hessian":[2.5898416E4,1.1989847E4,1.390857E4,1.1754205E4,2.3564148E2,2.2267747E3,1.1681796E4,2.332527E3,9.421678E3,9.082275E1,1.4481874E2,6.424776E2,1.584297E3,1.1479E4,2.0279599E2,2.327053E3,5.4742475E0,9.333592E3,8.8085625E1,7.68883E1,1.3934448E1,1.4233044E2,2.4882944E0,1.1033097E3,4.809873E2,6.0714382E1,1.1418285E4,2.5131773E1,1.7766422E2,2.3250623E3,1.9906355E0,2.168051E3,7.1655415E3,8.435318E1,3.7324417E0,3.8319733E1,3.856856E1,1.0450836E1,3.483612E0,1.16949835E1,1.3063545E2,7.5594385E2,3.473659E2,4.5859265E2,2.239465E1,2.4882944E1,3.583144E1,1.0305271E4,1.113014E3,9.206689E0,1.5925084E1,2.315358E3,9.704349E0,2.0827024E3,8.5348495E1,7.104827E3,6.0714382E1,8.286021E1,1.4929767E0,1.2441472E0,2.4882944E0,2.4136456E1,1.4183278E1,3.3840805E1,4.7277594E0,1.2441472E0,1.0450836E1,2.8242142E2,4.7352243E2,1.4904883E2,1.9831706E2,8.460201E0,1.3934448E1,1.4929767E0,2.3389967E1,1.0290093E4,1.5178596E1,9.341057E2,1.7890837E2,7.7137127E0,1.4929767E0,3.981271E0,1.1943813E1,7.7137127E0,2.3076443E3,1.741806E0,7.962542E0,1.7383225E3,3.4437994E2,1.16949835E1,7.365351E1,5.4742475E0,5.5240135E1,2.189699E1,2.239465E0,2.9859533E0,1.741806E0,2.2120937E2,6.1212044E1,4.1927762E2,5.424482E1,6.3451508E1,8.559733E1,1.9085217E2,7.4648833E0,6.220736E0,2.239465E0,1.1197325E1,1.2192642E1,1.16949835E1,3.483612E0,6.320268E1,1.1570569E2,2.4882944E0,1.4929767E0,2.7221942E2,1.466103E3,2.3638796E1,3.2074115E2,3.6577927E1,3.707559E1,1.9408697E1,2.4882944E0,8.758796E1,1.3362141E2,1.4680937E1,3.956388E1,3.2347828E1,3.110368E1,6.220736E0,1.2441472E0,4.2301006E0,7.962542E0,2.239465E0,1.2441472E0,6.096321E1,2.239465E0,1.0027827E2,1.5427425E1,2.7072644E2,1.4929767E0,1.3884683E2,1.8189432E2,3.085485E1,5.7230773E0,5.4742475E0,1.3934448E1,1.2441472E0,1.2441472E0,4.578462E1,4.1803345E1,6.4695654E0,2.4634115E1,2.4882944E0,1.2939131E1,1.3063545E2,8.211371E0,1.2939131E1,1.791572E1,2.239465E0,3.483612E0,3.7324417E0,1.741806E0,1.9906355E0,1.0948495E1,7.962542E0,4.9765887E0,2.239465E0,1.2441472E0],"tree_param":{"num_deleted":"0","num_feature":"15","num_nodes":"169","size_leaf_vector":"1"}},{"base_weights":[4.0154103E-3,-1.264785E0,1.5437609E0,-1.0295737E-1,-1.8223683E0,1.5647079E0,-2.835759E-1,-1.072956E0,2.2690603E-1,-1.798117E0,-1.9235078E0,1.6090367E0,1.2131703E0,-1.0196415E0,1.5330583E0,-1.5408036E0,8.7847215E-1,5.358026E-1,-1.5990626E0,-1.6535977E0,-2.9346135E-1,-3.1244537E-1,3.205226E-2,1.5032644E0,1.6362612E0,-1.3542336E0,1.6244341E0,-5.6761634E-1,-1.5319557E0,2.565569E-1,7.656106E-3,-5.980664E-1,-2.9310733E-1,1.2479218E0,-2.8418002E-1,7.607762E-1,-1.7173207E0,-8.312013E-1,-2.8941607E-1,-1.4644432E-1,-1.7519819E0,1.6047002E0,1.0143261E0,1.3428117E0,2.6613E-1,-1.5793327E0,6.682706E-1,2.6561195E-1,1.3084623E0,-1.09402E0,4.7316107E-1,-2.7569798E-1,1.8309397E-1,-9.4145715E-2,-2.2054155E-1,1.412976E0,-1.1148261E0,9.7093534E-1,-2.61131E-1,-1.1729447E0,-2.9322842E-1,-9.373281E-1,1.0581813E0,2.5095063E-1,-2.7670327E-1,-2.8877142E-1,5.006929E-2,8.7072355E-1,1.6139948E0,-7.980992E-1,1.5636637E0,5.2306485E-1,2.6318467E-1,-1.6047341E0,-9.100844E-2,1.6920748E-1,1.058084E0,8.0054975E-1,2.5982136E-1,-6.385368E-2,-2.7694425E-1,7.433631E-1,-1.416107E-1,2.4504653E-1,1.0400264E0,-1.3335095E-2,-1.3972975E0,4.611054E-1,1.5235317E0,5.0191987E-1,-1.4769306E0,-1.3499336E0,4.4266385E-1,-9.633204E-1,8.80505E-2,6.4351924E-2,2.018337E-1,-2.4540773E-1,2.5985342E-1,1.024695E0,-2.3273982E-1,2.625136E-1,9.195798E-1,1.011364E0,-2.686214E-1,2.6063165E-1,1.0144173E0,1.3400607E0,-1.3856225E0,-2.6174533E-1,-5.2962843E-2,6.441179E-1,-1.3158326E-1,4.0993327E-1,1.960437E-1,2.1085952E-1,-1.5364182E-1,4.2955324E-1,-2.2633418E-1,2.044345E-1,-4.116404E-2,3.3421338E-1,1.2624472E0,-4.070068E-2,-2.4713546E-1,1.0672351E0,1.4841531E-1,1.9109263E0,1.4510417E0,5.572237E-1,-2.543667E-1,-1.1657393E0,-1.6242815E0,-7.630856E-1,-2.6919898E-1,2.0365757E-1,-1.6278385E-1,-1.5945345E-1,-7.078018E-2,1.8564433E-1,1.3429689E-2,-1.8750796E-1,1.4905946E-1,-1.9618933E-1,2.3901834E-1,2.4772312E-1,-1.5261875E-1,-5.335187E-2,2.4082339E-1,1.6631983E-1,2.5360936E-1,-2.6199943E-1,-6.403024E-4,-4.102474E-2,1.4386104E-1,1.4505883E-1,-4.102474E-2,1.3283563E-1,1.9142388E-1,-5.474883E-1,6.663545E-1,4.9557972E-1,1.9619394E-4,2.3317474E-1,5.874741E-1,1.1142142E0,-9.3013453E-1,4.3359327E-1,-3.035178E-1,2.2348222E-1,3.2401174E-1,1.2551967E0,1.6253672E0,8.448751E-1,2.7383256E-1,-1.3601243E0,-3.0917194E-1,-2.8673345E-1,-1.3373538E0,-1.0408118E0,1.6264975E-1,7.0958763E-1,-5.837934E-1,7.698188E-2,-1.9492276E-2,2.882025E-1,-1.625622E-1,1.4440163E-2,-1.529769E-1,2.2113116E-2,1.458911E-1,4.4991132E-2,1.4579444E-1,6.704677E-2,1.9403349E-1,9.971893E-1,2.622712E-1,-2.0505334E-1,3.6461856E-2,7.1816325E-2,-3.02799E-1,1.2789525E0,-2.0127279E-1,1.657338E0,2.5530213E-1,2.9506011E-2,2.6372987E-1,2.246917E-1,-3.8636345E-1,-1.031378E0,-2.4524319E-1,7.23519E-2,-2.0929228E-1,-9.556763E-1,-2.7908072E-1,-1.5446618E-1,-2.6121864E-1,1.7057637E-2,1.5714502E-1,-1.2177736E-1,-1.5906574E-2,2.0715788E-2,8.39855E-2,-6.318775E-2,2.6425349E-2,3.580688E-2,-4.059056E-2,9.807887E-1,2.120658E-1,-1.6967188E-1,-8.41409E-2,1.2475759E0,1.57212E0,1.6637849E0,9.918482E-2,2.448379E-1,-8.086971E-1,-5.7016087E-1,2.3530474E-1,-8.668318E-2,-2.0173979E-1,-1.4831392E-1,1.4579444E-1,-1.6707255E-1,-1.1417038E0,-1.1545248E-1,1.5889414E-1,1.5959631E-1,4.4584125E-2,-8.164785E-2,7.7985907E-3,1.2260062E0,1.5632353E0,2.6373416E-1,4.9233764E-2,1.6682152E0,9.6516386E-2,-2.4910045E-1,8.1379764E-2,-4.0403265E-1,-1.5588637E-1,-5.8308017E-2,4.5001127E-2,-1.3304495E-3,-4.5049436E-2,5.3755324E-3,-5.8308017E-2,-2.1152915E-1,8.976343E-3,1.9318904E-1,2.5779068E-1,2.8145048E-1,-6.4667806E-2,2.6643044E-1,3.2193774E-1,-8.620257E-2,2.0650673E-1],"categories":[],"categories_nodes":[],"categories_segments":[],"categories_sizes":[],"default_left":[0,0,0,0,0,0,0,0,0,0,0,0,0,0,0,0,0,0,0,0,0,0,0,0,0,0,0,0,0,0,0,0,0,0,0,0,0,0,0,0,0,0,0,0,0,0,0,0,0,0,0,0,0,0,0,0,0,0,0,0,0,0,0,0,0,0,0,0,0,0,0,0,0,0,0,0,0,0,0,0,0,0,0,0,0,0,0,0,0,0,0,0,0,0,0,0,0,0,0,0,0,0,0,0,0,0,0,0,0,0,0,0,0,0,0,0,0,0,0,0,0,0,0,0,0,0,0,0,0,0,0,0,0,0,0,0,0,0,0,0,0,0,0,0,0,0,0,0,0,0,0,0,0,0,0,0,0,0,0,0,0,0,0,0,0,0,0,0,0,0,0,0,0,0,0,0,0,0,0,0,0,0,0,0,0,0,0,0,0,0,0,0,0,0,0,0,0,0,0,0,0,0,0,0,0,0,0,0,0,0,0,0,0,0,0,0,0,0,0,0,0,0,0,0,0,0,0,0,0,0,0,0,0,0,0,0,0,0,0,0,0,0,0,0,0,0,0,0,0,0,0,0,0,0,0,0,0,0,0,0,0,0,0,0,0,0,0,0,0,0,0,0,0,0,0,0,0],"id":1,"left_children":[1,3,5,7,9,11,13,15,17,19,21,23,25,27,29,31,33,35,37,39,-1,-1,-1,41,43,45,47,49,51,-1,-1,53,-1,55,-1,57,59,61,-1,63,65,67,69,71,-1,73,75,-1,77,79,81,-1,-1,-1,-1,83,85,87,89,91,-1,93,95,-1,-1,-1,97,99,101,103,105,107,-1,109,-1,111,113,115,-1,117,-1,119,-1,-1,121,-1,123,125,127,129,131,133,135,137,-1,-1,-1,-1,-1,139,141,-1,143,145,-1,-1,147,149,151,-1,-1,153,-1,155,-1,-1,-1,157,-1,-1,159,161,163,-1,-1,165,167,169,171,173,-1,175,177,179,-1,-1,-1,-1,-1,-1,-1,-1,-1,-1,-1,-1,-1,181,-1,183,-1,-1,-1,-1,-1,-1,-1,185,-1,187,189,191,-1,-1,193,195,197,199,-1,-1,-1,201,203,205,207,209,211,-1,213,215,-1,217,219,-1,-1,221,223,-1,-1,-1,-1,-1,-1,225,-1,227,-1,-1,-1,-1,229,231,-1,233,235,-1,-1,-1,237,239,-1,241,-1,243,-1,245,-1,-1,-1,-1,-1,-1,-1,-1,-1,-1,-1,247,-1,249,-1,251,253,255,-1,-1,257,259,-1,261,-1,263,-1,265,267,-1,-1,-1,-1,-1,-1,269,271,-1,-1,273,-1,-1,-1,275,-1,-1,-1,-1,-1,-1,-1,-1,-1,-1,-1,-1,-1,-1,-1,-1,-1],"loss_changes":[4.9472473E4,8.993549E3,4.3834375E2,1.4411184E3,1.9552734E1,1.7430273E2,1.7606354E2,1.0448263E3,1.8967244E3,7.96875E0,6.400879E0,2.6455078E1,1.3438286E3,2.077649E1,2.6195755E0,2.2944434E2,2.1751543E2,1.4589592E3,6.731616E1,7.424219E1,0E0,0E0,0E0,1.00921875E2,5.892578E0,8.117288E1,2.0456543E0,2.859387E1,2.1085571E1,0E0,0E0,2.0047836E0,0E0,7.759766E1,0E0,5.619208E2,1.0595886E1,2.0238953E1,0E0,8.672648E1,2.3235718E1,1.0265137E1,3.576694E2,2.164009E1,0E0,3.2051086E0,3.3863697E0,0E0,5.4574356E0,2.1549599E1,7.1612062E0,0E0,0E0,0E0,0E0,5.0264587E0,3.761158E0,6.104824E2,4.1532816E2,1.1951435E1,0E0,4.038788E0,1.9076395E-1,0E0,0E0,0E0,2.1789404E1,4.2420826E0,2.5493164E0,1.3181749E2,4.743164E0,4.310155E1,0E0,1.0455017E0,0E0,4.8166156E0,4.8550034E-1,1.7415977E1,0E0,9.685248E0,0E0,6.311537E0,0E0,0E0,5.993351E0,0E0,1.1091442E0,2.1397266E2,2.6449219E1,3.2378143E1,6.0198364E0,5.261978E0,6.745384E0,4.8114777E-1,0E0,0E0,0E0,0E0,0E0,2.2464714E0,4.9907885E0,0E0,1.4313572E1,2.916822E1,0E0,0E0,1.1271463E1,4.710209E0,2.653511E0,0E0,0E0,1.6956241E0,0E0,1.3192077E0,0E0,0E0,0E0,2.2597346E0,0E0,0E0,2.9091487E0,5.986608E-1,2.7677116E0,0E0,0E0,3.7099487E1,4.3050052E2,4.5889893E0,2.8028809E1,2.1687546E1,0E0,9.403038E0,2.3181763E0,8.04026E0,0E0,0E0,0E0,0E0,0E0,0E0,0E0,0E0,0E0,0E0,0E0,0E0,0E0,3.5645485E0,0E0,4.2321447E-1,0E0,0E0,0E0,0E0,0E0,0E0,0E0,4.5569092E-1,0E0,1.2627931E0,2.983178E-1,4.1137958E-1,0E0,0E0,2.4491131E0,2.0462524E1,3.8925753E0,4.4221725E0,0E0,0E0,0E0,2.6432861E1,1.9838623E1,6.847648E1,1.0092747E2,8.124924E-1,4.6589217E0,0E0,4.499687E0,6.2144184E0,0E0,4.67942E-1,3.4229374E-1,0E0,0E0,1.621238E-1,3.371043E-1,0E0,0E0,0E0,0E0,0E0,0E0,3.1652644E-1,0E0,2.7871704E-1,0E0,0E0,0E0,0E0,1.5336728E-1,1.8624878E0,0E0,2.0308838E0,1.6861485E1,0E0,0E0,0E0,3.0071688E1,3.5278454E0,0E0,1.9072919E0,0E0,3.2306328E0,0E0,4.5579205E0,0E0,0E0,0E0,0E0,0E0,0E0,0E0,0E0,0E0,0E0,0E0,2.6068115E-1,0E0,5.093681E-1,0E0,6.730957E-1,1.943634E0,1.1320801E0,0E0,0E0,7.4237494E0,4.766159E0,0E0,5.3641874E-1,0E0,1.5238425E-1,0E0,2.282323E-1,3.6891994E0,0E0,0E0,0E0,0E0,0E0,0E0,2.7747803E0,7.6272087E0,0E0,0E0,4.921875E-1,0E0,0E0,0E0,1.2922958E1,0E0,0E0,0E0,0E0,0E0,0E0,0E0,0E0,0E0,0E0,0E0,0E0,0E0,0E0,0E0,0E0,0E0],"parents":[2147483647,0,0,1,1,2,2,3,3,4,4,5,5,6,6,7,7,8,8,9,9,10,10,11,11,12,12,13,13,14,14,15,15,16,16,17,17,18,18,19,19,23,23,24,24,25,25,26,26,27,27,28,28,31,31,33,33,35,35,36,36,37,37,39,39,40,40,41,41,42,42,43,43,45,45,46,46,48,48,49,49,50,50,55,55,56,56,57,57,58,58,59,59,61,61,62,62,66,66,67,67,68,68,69,69,70,70,71,71,73,73,75,75,76,76,77,77,79,79,81,81,84,84,86,86,87,87,88,88,89,89,90,90,91,91,92,92,93,93,99,99,100,100,102,102,103,103,106,106,107,107,108,108,111,111,113,113,117,117,120,120,121,121,122,122,125,125,126,126,127,127,128,128,129,129,131,131,132,132,133,133,147,147,149,149,157,157,159,159,160,160,161,161,164,164,165,165,166,166,167,167,171,171,172,172,173,173,174,174,175,175,176,176,178,178,179,179,181,181,182,182,185,185,186,186,193,193,195,195,200,200,201,201,203,203,204,204,208,208,209,209,211,211,213,213,215,215,227,227,229,229,231,231,232,232,233,233,236,236,237,237,239,239,241,241,243,243,244,244,251,251,252,252,255,255,259,259],"right_children":[2,4,6,8,10,12,14,16,18,20,22,24,26,28,30,32,34,36,38,40,-1,-1,-1,42,44,46,48,50,52,-1,-1,54,-1,56,-1,58,60,62,-1,64,66,68,70,72,-1,74,76,-1,78,80,82,-1,-1,-1,-1,84,86,88,90,92,-1,94,96,-1,-1,-1,98,100,102,104,106,108,-1,110,-1,112,114,116,-1,118,-1,120,-1,-1,122,-1,124,126,128,130,132,134,136,138,-1,-1,-1,-1,-1,140,142,-1,144,146,-1,-1,148,150,152,-1,-1,154,-1,156,-1,-1,-1,158,-1,-1,160,162,164,-1,-1,166,168,170,172,174,-1,176,178,180,-1,-1,-1,-1,-1,-1,-1,-1,-1,-1,-1,-1,-1,182,-1,184,-1,-1,-1,-1,-1,-1,-1,186,-1,188,190,192,-1,-1,194,196,198,200,-1,-1,-1,202,204,206,208,210,212,-1,214,216,-1,218,220,-1,-1,222,224,-1,-1,-1,-1,-1,-1,226,-1,228,-1,-1,-1,-1,230,232,-1,234,236,-1,-1,-1,238,240,-1,242,-1,244,-1,246,-1,-1,-1,-1,-1,-1,-1,-1,-1,-1,-1,248,-1,250,-1,252,254,256,-1,-1,258,260,-1,262,-1,264,-1,266,268,-1,-1,-1,-1,-1,-1,270,272,-1,-1,274,-1,-1,-1,276,-1,-1,-1,-1,-1,-1,-1,-1,-1,-1,-1,-1,-1,-1,-1,-1,-1],"split_conditions":[-5.08779E-3,-5.1704365E-1,6.13957E-2,-1.2502123E-1,2.3677828E0,-3.1272664E-3,-1.0443882E-1,-7.1760887E-1,5.0837904E-1,-2.903178E-1,-8.011779E-2,-3.5442054E-1,-3.076779E-3,-3.483039E-3,1.1519766E1,-3.5442054E-1,3.8480487E0,-1.0786408E-1,-7.1760887E-1,-1.2502123E-1,-2.9346135E-1,-3.1244537E-1,3.205226E-2,-4.5848014E-3,-5.0814203E-3,-2.721297E-1,1.7592944E-2,-5.0432007E-3,-3.076779E-3,2.565569E-1,7.656106E-3,3.8480487E0,-2.9310733E-1,-2.4469943E-1,-2.8418002E-1,2.2174275E0,-3.4791775E-2,-3.407054E-1,-2.8941607E-1,-2.1726917E-1,3.4190223E-1,-5.0814203E-3,-4.5078904E-3,1.19539E0,2.6613E-1,-2.8584486E-1,-1.8983889E-1,2.6561195E-1,-1.0596116E-1,-5.0800047E-3,-1.0938642E-1,-2.7569798E-1,1.8309397E-1,-9.4145715E-2,-2.2054155E-1,-3.407054E-1,-2.1726917E-1,-3.5442054E-1,-6.8272793E-1,-9.873004E-2,-2.9322842E-1,-1.09767005E-1,-3.437804E-1,2.5095063E-1,-2.7670327E-1,-2.8877142E-1,-3.5442054E-1,-1.0786408E-1,5.5442023E0,-4.514968E-3,-9.3021266E-2,-5.955257E-1,2.6318467E-1,-1.0596116E-1,-9.100844E-2,-6.3912684E-1,-6.8272793E-1,-1.0786408E-1,2.5982136E-1,-6.9144815E-1,-2.7694425E-1,-4.446314E-3,-1.416107E-1,2.4504653E-1,-6.9144815E-1,-1.3335095E-2,-6.2168634E-1,-1.8794344E-1,-7.1760887E-1,3.8480487E0,-6.304066E-1,2.7956745E-1,-7.1760887E-1,-3.5442054E-1,8.80505E-2,6.4351924E-2,2.018337E-1,-2.4540773E-1,2.5985342E-1,2.2174275E0,-1.074835E-1,2.625136E-1,2.2174275E0,1.4027728E-1,-2.686214E-1,2.6063165E-1,-3.4791775E-2,2.2174275E0,-1.6240862E-1,-2.6174533E-1,-5.2962843E-2,-6.740077E-1,-1.3158326E-1,-7.0888865E-1,1.960437E-1,2.1085952E-1,-1.5364182E-1,-7.1760887E-1,-2.2633418E-1,2.044345E-1,-4.3915804E-3,-3.2699025E-1,-2.8584486E-1,-4.070068E-2,-2.4713546E-1,-1.0862525E-1,-7.1760887E-1,-3.437804E-1,-3.407054E-1,-7.1760887E-1,-2.543667E-1,-2.4469943E-1,-2.309843E-1,-1.05199985E-1,-2.6919898E-1,2.0365757E-1,-1.6278385E-1,-1.5945345E-1,-7.078018E-2,1.8564433E-1,1.3429689E-2,-1.8750796E-1,1.4905946E-1,-1.9618933E-1,2.3901834E-1,2.4772312E-1,-1.5261875E-1,-8.73125E-2,2.4082339E-1,-7.0888865E-1,2.5360936E-1,-2.6199943E-1,-6.403024E-4,-4.102474E-2,1.4386104E-1,1.4505883E-1,-4.102474E-2,-1.0862525E-1,1.9142388E-1,-7.001684E-1,-3.2699025E-1,-7.001684E-1,1.9619394E-4,2.3317474E-1,-6.4784706E-1,-7.1760887E-1,-1.08244665E-1,-1.0938642E-1,-3.035178E-1,2.2348222E-1,3.2401174E-1,-6.8272793E-1,2.5236197E0,-3.5442054E-1,-3.5442054E-1,-6.652875E-1,3.8480487E0,-2.8673345E-1,3.8480487E0,-1.0596116E-1,1.6264975E-1,-4.13348E-3,-4.13348E-3,7.698188E-2,-1.9492276E-2,-1.0900584E-1,-1.074835E-1,1.4440163E-2,-1.529769E-1,2.2113116E-2,1.458911E-1,4.4991132E-2,1.4579444E-1,-6.565673E-1,1.9403349E-1,-1.0938642E-1,2.622712E-1,-2.0505334E-1,3.6461856E-2,7.1816325E-2,-1.08244665E-1,-6.098847E-1,-2.0127279E-1,-1.09767005E-1,-7.001684E-1,2.9506011E-2,2.6372987E-1,2.246917E-1,-2.9955998E-1,-3.5442054E-1,-2.4524319E-1,-2.1726917E-1,-2.0929228E-1,-6.129661E-1,-2.7908072E-1,-1.0710291E-1,-2.6121864E-1,1.7057637E-2,1.5714502E-1,-1.2177736E-1,-1.5906574E-2,2.0715788E-2,8.39855E-2,-6.318775E-2,2.6425349E-2,3.580688E-2,-4.059056E-2,-1.09767005E-1,2.120658E-1,-1.0900584E-1,-8.41409E-2,-3.437804E-1,-7.0888865E-1,3.5182214E-1,9.918482E-2,2.448379E-1,-2.309843E-1,-7.0888865E-1,2.3530474E-1,-6.740077E-1,-2.0173979E-1,-6.3912684E-1,1.4579444E-1,-6.2168634E-1,-8.011779E-2,-1.1545248E-1,1.5889414E-1,1.5959631E-1,4.4584125E-2,-8.164785E-2,7.7985907E-3,-1.09767005E-1,-1.09767005E-1,2.6373416E-1,4.9233764E-2,6.847436E-1,9.6516386E-2,-2.4910045E-1,8.1379764E-2,-3.407054E-1,-1.5588637E-1,-5.8308017E-2,4.5001127E-2,-1.3304495E-3,-4.5049436E-2,5.3755324E-3,-5.8308017E-2,-2.1152915E-1,8.976343E-3,1.9318904E-1,2.5779068E-1,2.8145048E-1,-6.4667806E-2,2.6643044E-1,3.2193774E-1,-8.620257E-2,2.0650673E-1],"split_indices":[5,10,14,1,14,5,0,10,13,10,11,11,5,5,0,11,6,0,10,1,0,0,0,5,5,11,5,5,5,0,0,6,0,11,0,1,0,11,0,11,14,5,5,11,0,11,11,0,0,5,0,0,0,0,0,11,11,11,10,0,0,0,14,0,0,0,11,0,0,5,0,10,0,0,0,10,10,0,0,10,0,5,0,0,10,0,10,14,10,6,10,14,10,11,0,0,0,0,0,1,0,0,1,0,0,0,0,1,11,0,0,10,0,10,0,0,0,10,0,0,5,11,11,0,0,0,10,14,11,10,0,11,11,0,0,0,0,0,0,0,0,0,0,0,0,0,0,0,0,10,0,0,0,0,0,0,0,0,0,10,11,10,0,0,10,10,0,0,0,0,0,10,14,11,11,10,6,0,6,0,0,5,5,0,0,0,0,0,0,0,0,0,0,10,0,0,0,0,0,0,0,13,0,0,10,0,0,0,11,11,0,11,0,10,0,0,0,0,0,0,0,0,0,0,0,0,0,0,0,0,0,14,10,13,0,0,11,10,0,10,0,10,0,10,11,0,0,0,0,0,0,0,0,0,0,14,0,0,0,11,0,0,0,0,0,0,0,0,0,0,0,0,0,0,0,0,0],"split_type":[0,0,0,0,0,0,0,0,0,0,0,0,0,0,0,0,0,0,0,0,0,0,0,0,0,0,0,0,0,0,0,0,0,0,0,0,0,0,0,0,0,0,0,0,0,0,0,0,0,0,0,0,0,0,0,0,0,0,0,0,0,0,0,0,0,0,0,0,0,0,0,0,0,0,0,0,0,0,0,0,0,0,0,0,0,0,0,0,0,0,0,0,0,0,0,0,0,0,0,0,0,0,0,0,0,0,0,0,0,0,0,0,0,0,0,0,0,0,0,0,0,0,0,0,0,0,0,0,0,0,0,0,0,0,0,0,0,0,0,0,0,0,0,0,0,0,0,0,0,0,0,0,0,0,0,0,0,0,0,0,0,0,0,0,0,0,0,0,0,0,0,0,0,0,0,0,0,0,0,0,0,0,0,0,0,0,0,0,0,0,0,0,0,0,0,0,0,0,0,0,0,0,0,0,0,0,0,0,0,0,0,0,0,0,0,0,0,0,0,0,0,0,0,0,0,0,0,0,0,0,0,0,0,0,0,0,0,0,0,0,0,0,0,0,0,0,0,0,0,0,0,0,0,0,0,0,0,0,0,0,0,0,0,0,0,0,0,0,0,0,0,0,0,0,0,0,0],"sum_hessian":[2.5321361E4,1.3882176E4,1.1439187E4,4.5021978E3,9.379978E3,1.1309687E4,1.2950055E2,1.1419421E3,3.3602559E3,7.580986E3,1.7989916E3,1.0040061E4,1.269626E3,9.247156E1,3.7029E1,9.212793E2,2.206628E2,2.8746602E3,4.855957E2,5.014192E2,7.079567E3,1.7977472E3,1.2444223E0,2.0667144E3,7.9733457E3,1.749803E2,1.0946456E3,5.0246235E1,4.2225323E1,3.581592E1,1.2130762E0,2.029397E2,7.183396E2,1.9393849E2,2.672431E1,2.6142869E3,2.6037335E2,9.49887E1,3.90607E2,3.0878471E1,4.7054074E2,1.7097297E3,3.5698462E2,9.741112E1,7.8759346E3,1.5765308E2,1.7327227E1,1.0502675E3,4.4378147E1,3.333495E1,1.6911285E1,4.0075092E1,2.150233E0,1.9997032E2,2.9693677E0,1.816509E2,1.2287588E1,2.1683975E3,4.4588937E2,3.8706493E1,2.2166684E2,9.041403E1,4.5746665E0,1.4805598E1,1.6072872E1,4.6354645E2,6.994278E0,2.2564165E1,1.6871656E3,8.2928024E1,2.740566E2,2.5449284E1,7.196183E1,1.5325581E2,4.3972645E0,8.227695E0,9.09953E0,1.7579103E1,2.6799042E1,1.2839101E1,2.0495848E1,1.4456175E1,2.4551094E0,1.4178603E2,3.986488E1,2.9164505E0,9.371138E0,1.1287955E3,1.0396018E3,2.743138E2,1.7157556E2,3.5033085E1,3.6734111E0,8.91964E1,1.2176353E0,1.688122E0,2.8865447E0,3.497139E0,3.497139E0,1.9863852E1,2.700314E0,1.6775187E3,9.64687E0,2.6594511E1,5.6333515E1,2.5272511E2,2.1331486E1,1.8029737E1,7.419546E0,1.5204639E2,1.209424E0,5.7727323E0,2.4549627E0,2.4098196E0,6.689711E0,1.3875581E1,3.7035224E0,9.860178E0,2.9789226E0,8.353752E0,6.1024227E0,1.015198E1,2.9712898E1,1.2195853E0,8.151552E0,3.833272E2,7.454684E2,1.5987105E2,8.7973083E2,2.6788458E2,6.429214E0,5.7998848E1,1.1357672E2,1.327276E1,2.1760324E1,2.4365716E0,1.2368394E0,8.524036E1,3.9560401E0,1.7443531E1,2.4203205E0,1.4969814E0,1.2033327E0,1.7452931E0,7.9015765E0,2.121502E1,5.3794928E0,6.784375E0,1.4547111E1,3.1518025E0,1.4877935E1,6.2216177E0,1.1979284E0,1.2184527E0,4.55428E0,1.1913668E0,1.2184527E0,7.9081535E0,1.9520249E0,3.688787E0,2.4136357E0,6.5094457E0,3.642535E0,2.271995E1,6.9929495E0,3.7495035E2,8.376842E0,6.538728E2,9.1595604E1,2.4409277E1,1.3546178E2,4.1815607E2,4.6157477E2,1.3195973E2,1.3592485E2,4.6792187E1,1.120666E1,7.2461655E1,4.111507E1,1.1823008E1,1.4497526E0,2.6438985E0,4.1404767E0,1.2026042E0,1.9491982E0,5.198381E0,2.7097726E0,1.7094872E0,1.9792998E0,1.2194815E0,1.1941543E0,5.315446E0,1.1939999E0,4.3661494E0,2.6267998E0,3.0645862E2,6.849174E1,6.4277444E0,1.949097E0,6.4646564E2,7.4071503E0,4.1469553E2,3.4605315E0,4.508445E2,1.0730257E1,7.1994606E1,5.9965137E1,5.0267944E1,8.5656906E1,1.7186329E1,2.9605858E1,8.733886E0,2.4727747E0,2.2321983E1,1.8793087E1,5.1177125E0,6.7052956E0,1.2136651E0,1.4302335E0,2.6779823E0,1.4624944E0,3.972757E0,1.2256237E0,1.4810741E0,1.2286984E0,3.1467242E0,1.2194252E0,2.9499265E2,1.1465989E1,5.684429E0,1.722721E0,3.7935046E2,3.534505E1,4.4749673E2,3.3477602E0,4.7351613E0,5.9950953E0,7.8489655E1,7.167248E0,3.4031749E0,1.3783154E1,7.5398855E0,1.1939999E0,4.6228786E0,1.7699104E1,3.6814318E0,1.4362806E0,2.9354413E2,1.4485052E0,1.727937E0,3.9564924E0,3.596582E2,1.969228E1,3.3662445E1,1.6826055E0,4.4509198E2,2.4047558E0,3.7469347E0,2.2481608E0,5.6483585E1,2.2006071E1,1.9532393E0,1.4499357E0,4.128143E0,3.411743E0,2.669639E0,1.9532393E0,1.5515633E1,2.1834714E0,3.312999E2,2.8358286E1,1.8221067E1,1.4712123E0,4.1613824E2,2.8953743E1,5.3138218E1,3.3453653E0],"tree_param":{"num_deleted":"0","num_feature":"15","num_nodes":"277","size_leaf_vector":"1"}},{"base_weights":[5.305393E-3,-1.3473965E0,1.2449008E0,-4.1663158E-1,-1.6023436E0,1.3259E0,-1.340003E0,9.988197E-1,-1.0173278E0,-1.3384373E0,-1.6153184E0,1.3720481E0,-5.5682844E-1,2.3115295E-1,-2.5901708E-1,1.2489378E0,-6.542101E-1,-1.2934742E0,2.1962047E-1,4.965456E-1,-1.5332696E0,-1.599849E0,-1.6756155E0,1.467935E0,1.0936679E0,2.5281897E-1,-1.3496921E0,-2.4627276E-1,1.2808952E0,-1.5742551E0,2.578689E-1,-1.4443485E0,-3.4594822E-1,1.4378192E0,-9.1829324E-1,-2.544359E-1,1.4159026E0,-1.5379417E0,-4.4135418E-2,-1.380388E0,-2.6028258E-1,-2.721813E-1,2.3121232E-2,1.471615E0,-2.5190493E-1,1.2245625E0,-8.8169837E-1,4.4387016E-1,-1.3811566E0,-1.4525733E0,2.9365802E-1,1.1515065E0,2.814836E-1,-2.7371341E-2,-2.7036056E-1,-1.025445E0,-1.5951355E0,1.2864249E0,-1.1315235E0,2.4063857E-1,-3.3597058E-1,-1.2889136E0,4.897401E-1,2.7399656E-1,-3.773196E-1,-1.4182731E0,-2.597058E-1,2.8636646E-1,-2.738854E-1,1.4056079E0,2.4244393E-1,-1.0748416E0,2.166591E-1,-1.2031387E0,1.3250338E0,2.3687114E-1,-1.504518E0,-1.9645146E-1,2.3348835E-1,-2.4337453E-1,-5.0051355E-1,-1.504092E0,1.24785855E-1,-1.4385977E-1,1.2825257E-1,1.8860666E-1,1.6674038E-2,3.2614455E-1,-2.955559E-1,-7.120599E-1,-2.6060978E-1,1.449563E0,-1.9036423E-1,-7.888304E-1,-2.640461E-1,1.4889179E-1,-2.0832273E-1,-1.440797E0,2.1806313E-1,2.809888E-1,2.1139674E-1,-1.9992384E-1,1.7816971E-1,-1.5834568E0,2.187152E-1,1.4742715E0,1.2866879E0,-2.4745774E-1,1.6258778E-1,-1.7743084E0,1.3020235E0,7.603632E-1,1.3878095E0,-2.5871545E-1,8.7902445E-1,2.233997E-1,-4.0565813E-1,1.8692821E-2,-1.4216122E-1,8.489021E-2,-1.5389163E0,4.2652052E-2,-3.5766017E-1,1.3066699E-1,-1.8056555E-1,4.209225E-1,-2.2054335E-1,-2.4705346E-1,1.6006242E-1,-7.7341676E-2,2.4285632E-1,-1.0514468E0,2.506573E-1,-1.5176344E0,7.374842E-2,6.853413E-2,1.9941121E-1,-9.8930016E-2,-2.593808E-1,2.4000652E-1,-3.4881878E-1,-7.6087373E-1,2.3673227E-1,-2.969775E-1,1.4747745E-1,3.1494582E-1,2.2973664E-1,2.766784E-1,2.4203573E-1,1.457762E0,1.2522975E0,2.090912E-1,-7.514441E-2,1.9693182E-1,-6.7143077E-1,1.2732998E-1,-2.5387973E-1,-9.7676165E-2,4.6339566E-3,5.3813684E-1,-6.836729E-1,-5.6697745E-2,-1.5021412E0,-2.503735E-1,-3.4925293E-2,2.6403958E-1,-1.4842698E-1,-2.1677452E-1,7.692216E-2,-2.4936171E-1,2.2552426E-1,-3.6565453E-2,1.2731045E-1,1.2088157E0,-9.147381E-1,-8.706225E-1,2.383158E-1,1.1092554E0,1.4272659E0,1.795137E-2,1.5361045E-1,-6.0760224E-1,-2.0784332E-1,5.6688297E-1,-1.4375098E-1,-1.8563019E-1,1.6293104E-1,-2.4891482E-1,-3.0244902E-2,-1.7012937E-2,1.9946904E-1,1.4050068E0,-4.0479368E-1,-1.9581367E-1,-2.5107262E-1,1.5550654E-1,-2.2987597E-1,6.937093E-1,1.2822077E0,1.4789538E0,6.3334876E-1,-1.7333673E-1,-5.3401214E-1,7.668568E-1,2.7084947E-1,-3.2629853E-1,4.7869512E-1,2.338733E-1,8.318372E-1,-1.8822677E-1,1.8452233E-1,-2.621574E-1,2.2437921E-1,2.967003E-1,2.2670999E-1,1.3694543E0,9.741208E-1,2.4044831E-1,6.019837E-2,2.2853349E-1,-1.053865E0,1.1177153E-2,-9.020861E-2,4.5218533E-1,2.4361865E-1,2.1823333E-1,1.5594584E-1,-1.8412235E-1,9.794149E-2,1.9429357E-1,-1.1182706E-1,-3.3293564E-2,1.992059E-1,1.3596271E0,-9.1710186E-1,1.0921619E0,1.440966E0,4.7421336E-1,1.1004463E0,8.342764E-3,-2.0105751E-1,8.070511E-2,-1.3861331E-2,2.9110856E-2,1.3815352E-1,2.3719761E-1,8.5297E-2,-6.1086077E-2,-1.756637E-1,4.7662303E-2,2.2174154E-1,2.3843108E-1,8.842916E-1,1.0557594E0,-5.821085E-1,-7.240086E-2,1.1739085E0,2.0135534E-1,-1.3776936E-1,-8.0124244E-2,2.0627443E-1,2.1083124E-1,1.0025242E-1,-1.5370098E-1,7.860019E-2,1.5531655E-1,-1.7832677E-1,2.3417032E-1,1.5067181E-1],"categories":[],"categories_nodes":[],"categories_segments":[],"categories_sizes":[],"default_left":[0,0,0,0,0,0,0,0,0,0,0,0,0,0,0,0,0,0,0,0,0,0,0,0,0,0,0,0,0,0,0,0,0,0,0,0,0,0,0,0,0,0,0,0,0,0,0,0,0,0,0,0,0,0,0,0,0,0,0,0,0,0,0,0,0,0,0,0,0,0,0,0,0,0,0,0,0,0,0,0,0,0,0,0,0,0,0,0,0,0,0,0,0,0,0,0,0,0,0,0,0,0,0,0,0,0,0,0,0,0,0,0,0,0,0,0,0,0,0,0,0,0,0,0,0,0,0,0,0,0,0,0,0,0,0,0,0,0,0,0,0,0,0,0,0,0,0,0,0,0,0,0,0,0,0,0,0,0,0,0,0,0,0,0,0,0,0,0,0,0,0,0,0,0,0,0,0,0,0,0,0,0,0,0,0,0,0,0,0,0,0,0,0,0,0,0,0,0,0,0,0,0,0,0,0,0,0,0,0,0,0,0,0,0,0,0,0,0,0,0,0,0,0,0,0,0,0,0,0,0,0,0,0,0,0,0,0,0,0,0,0,0,0,0,0,0,0,0,0,0,0,0,0,0,0,0,0,0,0,0,0,0,0,0,0,0,0,0,0],"id":2,"left_children":[1,3,5,7,9,11,13,15,17,19,21,23,25,-1,-1,27,29,31,33,35,37,39,41,43,45,47,49,-1,51,53,-1,55,57,59,61,-1,63,65,-1,67,-1,-1,-1,69,71,73,75,77,79,81,83,85,-1,-1,-1,87,89,91,93,-1,95,97,99,-1,101,103,-1,-1,-1,105,-1,107,-1,109,111,-1,113,115,-1,-1,117,119,-1,121,-1,-1,123,125,-1,127,-1,129,-1,131,-1,-1,-1,133,-1,135,-1,-1,-1,137,-1,139,141,-1,-1,143,145,147,149,-1,151,-1,153,-1,-1,-1,155,-1,157,-1,-1,159,-1,-1,-1,-1,-1,161,-1,163,-1,165,-1,-1,-1,-1,167,169,-1,-1,-1,171,-1,173,-1,175,177,-1,-1,179,181,-1,-1,-1,-1,183,185,-1,187,-1,-1,189,-1,-1,-1,-1,-1,-1,-1,191,193,195,-1,197,199,-1,-1,201,-1,203,-1,-1,-1,-1,-1,205,-1,207,209,211,-1,-1,-1,213,215,217,219,-1,221,223,225,227,229,-1,231,-1,-1,-1,-1,233,-1,235,237,-1,-1,-1,239,-1,-1,241,-1,243,-1,-1,-1,-1,-1,-1,-1,245,247,249,251,253,255,-1,-1,-1,-1,-1,-1,-1,-1,-1,-1,257,-1,-1,259,261,263,265,267,-1,-1,-1,-1,-1,-1,-1,-1,-1,-1,-1,-1],"loss_changes":[4.0134055E4,2.715248E3,2.6167832E3,2.094575E3,2.859961E1,1.0529883E3,2.7104327E2,3.0434082E2,5.909248E2,1.5335956E2,5.3007812E0,3.1393555E2,1.8679672E2,0E0,0E0,5.834369E1,2.029611E2,2.0160156E2,4.399603E2,8.1403015E1,1.8569946E0,3.5488281E0,4.5961914E0,5.6001953E1,7.851758E2,4.5737446E1,2.52641E1,0E0,3.5036377E1,8.64592E0,0E0,7.5376465E1,2.5215628E2,1.2684021E1,8.6327484E1,0E0,1.4988777E1,5.921631E-1,0E0,1.2347832E2,0E0,0E0,0E0,1.0732422E1,2.705729E1,6.953965E2,2.7783273E2,8.319689E1,8.520622E-1,1.6997894E1,2.1747317E0,5.904297E0,0E0,0E0,0E0,3.5060773E2,7.2094727E0,2.7371521E1,2.121193E1,0E0,6.632121E0,5.40235E1,5.5625086E0,0E0,7.2662854E0,6.6225494E1,0E0,0E0,0E0,1.6246094E1,0E0,1.4114216E1,0E0,1.6480656E2,9.578369E1,0E0,3.336551E1,2.6907875E1,0E0,0E0,8.6881715E-1,1.0378845E1,0E0,6.0602164E-1,0E0,0E0,5.8561215E0,1.9968414E1,0E0,1.8535881E1,0E0,6.157509E0,0E0,5.0808018E1,0E0,0E0,0E0,1.86958E1,0E0,5.769992E0,0E0,0E0,0E0,9.249573E-1,0E0,1.1996582E1,2.901548E2,0E0,0E0,1.5489685E1,1.9802742E0,9.6996735E1,2.1468262E1,0E0,3.9287462E0,0E0,1.1574626E1,0E0,0E0,0E0,9.087524E0,0E0,4.2109722E-1,0E0,0E0,1.5354738E1,0E0,0E0,0E0,0E0,0E0,2.2494003E1,0E0,3.5455322E0,0E0,5.009945E0,0E0,0E0,0E0,0E0,4.0875735E0,1.0930266E2,0E0,0E0,0E0,1.069327E0,0E0,1.8661119E2,0E0,4.1071777E1,1.9533447E1,0E0,0E0,1.360237E0,1.158493E0,0E0,0E0,0E0,0E0,4.808155E0,1.0111418E1,0E0,1.5385132E0,0E0,0E0,5.8440194E0,0E0,0E0,0E0,0E0,0E0,0E0,0E0,3.0373322E1,3.328104E1,9.275741E0,0E0,3.279596E1,1.4493835E1,0E0,0E0,1.0215511E0,0E0,5.933243E0,0E0,0E0,0E0,0E0,0E0,2.85678E0,0E0,5.364685E-1,1.410065E1,8.225341E1,0E0,0E0,0E0,3.8645386E1,7.5302734E0,4.389038E-1,3.381376E1,0E0,5.968399E-1,1.3497986E1,1.3647714E0,9.281436E0,6.8422136E0,0E0,3.260447E0,0E0,0E0,0E0,0E0,1.182659E2,0E0,3.4735413E0,4.2929916E0,0E0,0E0,0E0,1.771348E0,0E0,0E0,1.1178322E0,0E0,8.70613E-1,0E0,0E0,0E0,0E0,0E0,0E0,0E0,3.3731842E0,3.4291039E0,1.6055923E1,1.8162537E0,1.1141954E1,5.2637024E0,0E0,0E0,0E0,0E0,0E0,0E0,0E0,0E0,0E0,0E0,1.4680038E1,0E0,0E0,7.0645685E0,4.1321754E-1,3.0771763E0,5.789456E0,2.3993912E0,0E0,0E0,0E0,0E0,0E0,0E0,0E0,0E0,0E0,0E0,0E0,0E0],"parents":[2147483647,0,0,1,1,2,2,3,3,4,4,5,5,6,6,7,7,8,8,9,9,10,10,11,11,12,12,15,15,16,16,17,17,18,18,19,19,20,20,21,21,22,22,23,23,24,24,25,25,26,26,28,28,29,29,31,31,32,32,33,33,34,34,36,36,37,37,39,39,43,43,44,44,45,45,46,46,47,47,48,48,49,49,50,50,51,51,55,55,56,56,57,57,58,58,60,60,61,61,62,62,64,64,65,65,69,69,71,71,73,73,74,74,76,76,77,77,80,80,81,81,83,83,86,86,87,87,89,89,91,91,93,93,97,97,99,99,103,103,105,105,106,106,109,109,110,110,111,111,112,112,114,114,116,116,120,120,122,122,125,125,131,131,133,133,135,135,140,140,141,141,145,145,147,147,149,149,150,150,153,153,154,154,159,159,160,160,162,162,165,165,173,173,174,174,175,175,177,177,178,178,181,181,183,183,189,189,191,191,192,192,193,193,197,197,198,198,199,199,200,200,202,202,203,203,204,204,205,205,206,206,208,208,213,213,215,215,216,216,220,220,223,223,225,225,233,233,234,234,235,235,236,236,237,237,238,238,249,249,252,252,253,253,254,254,255,255,256,256],"right_children":[2,4,6,8,10,12,14,16,18,20,22,24,26,-1,-1,28,30,32,34,36,38,40,42,44,46,48,50,-1,52,54,-1,56,58,60,62,-1,64,66,-1,68,-1,-1,-1,70,72,74,76,78,80,82,84,86,-1,-1,-1,88,90,92,94,-1,96,98,100,-1,102,104,-1,-1,-1,106,-1,108,-1,110,112,-1,114,116,-1,-1,118,120,-1,122,-1,-1,124,126,-1,128,-1,130,-1,132,-1,-1,-1,134,-1,136,-1,-1,-1,138,-1,140,142,-1,-1,144,146,148,150,-1,152,-1,154,-1,-1,-1,156,-1,158,-1,-1,160,-1,-1,-1,-1,-1,162,-1,164,-1,166,-1,-1,-1,-1,168,170,-1,-1,-1,172,-1,174,-1,176,178,-1,-1,180,182,-1,-1,-1,-1,184,186,-1,188,-1,-1,190,-1,-1,-1,-1,-1,-1,-1,192,194,196,-1,198,200,-1,-1,202,-1,204,-1,-1,-1,-1,-1,206,-1,208,210,212,-1,-1,-1,214,216,218,220,-1,222,224,226,228,230,-1,232,-1,-1,-1,-1,234,-1,236,238,-1,-1,-1,240,-1,-1,242,-1,244,-1,-1,-1,-1,-1,-1,-1,246,248,250,252,254,256,-1,-1,-1,-1,-1,-1,-1,-1,-1,-1,258,-1,-1,260,262,264,266,268,-1,-1,-1,-1,-1,-1,-1,-1,-1,-1,-1,-1],"split_conditions":[-7.913954E-3,-6.9144815E-1,2.1164644E0,-1.4772571E0,-5.606448E-1,1.1099351E-4,-7.834691E-3,-7.1760887E-1,-7.91735E-3,-1.4772571E0,2.39895E0,-7.864778E-3,-3.407054E-1,2.3115295E-1,-2.5901708E-1,-2.220293E0,-3.5442054E-1,-6.1511827E-1,-7.9158945E-3,-3.2699025E-1,1.2377733E0,-1.8487751E0,-8.011779E-2,1.7756023E0,-3.6879984E-1,1.5297928E0,-6.652875E-1,-2.4627276E-1,-3.5442054E-1,1.3392588E0,2.578689E-1,-3.5442054E-1,5.0448626E-1,-7.0888865E-1,-3.5442054E-1,-2.544359E-1,2.4301176E0,3.253495E-1,-4.4135418E-2,-6.1511827E-1,-2.6028258E-1,-2.721813E-1,2.3121232E-2,-3.407054E-1,1.2377733E0,-7.864616E-3,-7.834691E-3,-1.09767005E-1,1.8232238E0,3.4708422E-1,-1.8983889E-1,1.2377733E0,2.814836E-1,-2.7371341E-2,-2.7036056E-1,-3.437804E-1,-7.918645E-3,-3.437804E-1,7.5185096E-1,2.4063857E-1,-3.407054E-1,1.2377733E0,1.2377733E0,2.7399656E-1,-2.309843E-1,-6.1511827E-1,-2.597058E-1,2.8636646E-1,-2.738854E-1,-7.885322E-3,2.4244393E-1,-1.0710291E-1,2.166591E-1,-3.407054E-1,1.2377733E0,2.3687114E-1,1.2377733E0,1.2377733E0,2.3348835E-1,-2.4337453E-1,4.8195686E0,-7.1760887E-1,1.24785855E-1,-6.4784706E-1,1.2825257E-1,1.8860666E-1,-1.0862525E-1,1.2377733E0,-2.955559E-1,-3.2699025E-1,-2.6060978E-1,-3.5442054E-1,-1.9036423E-1,-3.6270308E-1,-2.640461E-1,1.4889179E-1,-2.0832273E-1,-7.914277E-3,2.1806313E-1,-3.1327513E-1,2.1139674E-1,-1.9992384E-1,1.7816971E-1,-7.918645E-3,2.187152E-1,-3.437804E-1,1.2377733E0,-2.4745774E-1,1.6258778E-1,-1.09767005E-1,-7.0888865E-1,-7.674871E-3,-1.09767005E-1,-2.5871545E-1,-1.0938642E-1,2.233997E-1,-3.5442054E-1,1.8692821E-2,-1.4216122E-1,8.489021E-2,1.2377733E0,4.2652052E-2,-2.1726917E-1,1.3066699E-1,-1.8056555E-1,-1.0786408E-1,-2.2054335E-1,-2.4705346E-1,1.6006242E-1,-7.7341676E-2,2.4285632E-1,-7.1760887E-1,2.506573E-1,-7.1760887E-1,7.374842E-2,-7.0888865E-1,1.9941121E-1,-9.8930016E-2,-2.593808E-1,2.4000652E-1,-7.908615E-3,-7.883865E-3,2.3673227E-1,-2.969775E-1,1.4747745E-1,-3.1327513E-1,2.2973664E-1,-7.751869E-3,2.4203573E-1,-7.342211E-1,-3.5442054E-1,2.090912E-1,-7.514441E-2,-6.1511827E-1,-3.437804E-1,1.2732998E-1,-2.5387973E-1,-9.7676165E-2,4.6339566E-3,-7.001684E-1,-7.918645E-3,-5.6697745E-2,-3.1327513E-1,-2.503735E-1,-3.4925293E-2,-3.407054E-1,-1.4842698E-1,-2.1677452E-1,7.692216E-2,-2.4936171E-1,2.2552426E-1,-3.6565453E-2,1.2731045E-1,-2.5841457E-1,-7.6794005E-3,-1.4772571E0,2.383158E-1,-1.0900584E-1,-6.983506E-3,1.795137E-2,1.5361045E-1,-7.1760887E-1,-2.0784332E-1,-7.917512E-3,-1.4375098E-1,-1.8563019E-1,1.6293104E-1,-2.4891482E-1,-3.0244902E-2,-7.914277E-3,1.9946904E-1,-3.2699025E-1,-7.828705E-3,-7.748634E-3,-2.5107262E-1,1.5550654E-1,-2.2987597E-1,-7.7132084E-3,-9.3021266E-2,2.254807E0,-7.1760887E-1,-1.7333673E-1,8.814926E-3,-7.917674E-3,-1.09767005E-1,-7.1760887E-1,-7.1760887E-1,2.338733E-1,-7.828705E-3,-1.8822677E-1,1.8452233E-1,-2.621574E-1,2.2437921E-1,-7.732296E-3,2.2670999E-1,-1.08244665E-1,2.457947E-2,2.4044831E-1,6.019837E-2,2.2853349E-1,-1.0900584E-1,1.1177153E-2,-9.020861E-2,-7.1760887E-1,2.4361865E-1,-7.1760887E-1,1.5594584E-1,-1.8412235E-1,9.794149E-2,1.9429357E-1,-1.1182706E-1,-3.3293564E-2,1.992059E-1,-7.740384E-3,-7.724855E-3,-7.782442E-3,-6.983506E-3,-7.674871E-3,-7.858793E-3,8.342764E-3,-2.0105751E-1,8.070511E-2,-1.3861331E-2,2.9110856E-2,1.3815352E-1,2.3719761E-1,8.5297E-2,-6.1086077E-2,-1.756637E-1,-7.789883E-3,2.2174154E-1,2.3843108E-1,-6.7487913E-3,-7.817846E-2,-7.4650673E-3,5.089784E0,-7.764648E-3,2.0135534E-1,-1.3776936E-1,-8.0124244E-2,2.0627443E-1,2.1083124E-1,1.0025242E-1,-1.5370098E-1,7.860019E-2,1.5531655E-1,-1.7832677E-1,2.3417032E-1,1.5067181E-1],"split_indices":[4,10,10,3,10,4,4,10,4,3,14,4,11,0,0,3,11,12,4,11,8,3,11,14,10,0,10,0,11,14,0,11,12,10,11,0,14,12,0,12,0,0,0,11,8,4,4,0,0,4,11,8,0,0,0,14,4,14,3,0,11,8,8,0,11,12,0,0,0,4,0,0,0,11,8,0,8,8,0,0,0,10,0,10,0,0,0,8,0,11,0,11,0,3,0,0,0,4,0,11,0,0,0,4,0,14,8,0,0,0,10,4,0,0,0,0,11,0,0,0,8,0,11,0,0,0,0,0,0,0,0,10,0,10,0,10,0,0,0,0,4,4,0,0,0,11,0,4,0,3,11,0,0,12,14,0,0,0,0,10,4,0,11,0,0,11,0,0,0,0,0,0,0,11,4,3,0,0,4,0,0,10,0,4,0,0,0,0,0,4,0,11,4,4,0,0,0,4,0,0,10,0,3,4,0,10,10,0,4,0,0,0,0,4,0,0,0,0,0,0,0,0,0,10,0,10,0,0,0,0,0,0,0,4,4,4,4,4,4,0,0,0,0,0,0,0,0,0,0,4,0,0,4,0,4,0,4,0,0,0,0,0,0,0,0,0,0,0,0],"split_type":[0,0,0,0,0,0,0,0,0,0,0,0,0,0,0,0,0,0,0,0,0,0,0,0,0,0,0,0,0,0,0,0,0,0,0,0,0,0,0,0,0,0,0,0,0,0,0,0,0,0,0,0,0,0,0,0,0,0,0,0,0,0,0,0,0,0,0,0,0,0,0,0,0,0,0,0,0,0,0,0,0,0,0,0,0,0,0,0,0,0,0,0,0,0,0,0,0,0,0,0,0,0,0,0,0,0,0,0,0,0,0,0,0,0,0,0,0,0,0,0,0,0,0,0,0,0,0,0,0,0,0,0,0,0,0,0,0,0,0,0,0,0,0,0,0,0,0,0,0,0,0,0,0,0,0,0,0,0,0,0,0,0,0,0,0,0,0,0,0,0,0,0,0,0,0,0,0,0,0,0,0,0,0,0,0,0,0,0,0,0,0,0,0,0,0,0,0,0,0,0,0,0,0,0,0,0,0,0,0,0,0,0,0,0,0,0,0,0,0,0,0,0,0,0,0,0,0,0,0,0,0,0,0,0,0,0,0,0,0,0,0,0,0,0,0,0,0,0,0,0,0,0,0,0,0,0,0,0,0,0,0,0,0,0,0,0,0,0,0],"sum_hessian":[2.3932861E4,1.1444272E4,1.2488588E4,2.4612686E3,8.983004E3,1.2109615E4,3.7897324E2,7.3311926E2,1.7281493E3,4.258311E2,8.557173E3,1.1820159E4,2.8945627E2,3.1723293E1,3.4724994E2,6.3698254E2,9.61367E1,1.4127172E3,3.154322E2,4.072487E1,3.851062E2,6.8319443E3,1.7252288E3,8.78867E3,3.0314888E3,1.4354933E2,1.4590694E2,6.743763E0,6.302388E2,6.838482E1,2.775189E1,1.2182164E3,1.9450067E2,1.522146E2,1.632176E2,1.2331661E1,2.839321E1,3.8346655E2,1.6396606E0,1.2376609E2,6.708178E3,1.7239897E3,1.2389256E0,8.770049E3,1.8621294E1,2.8434517E3,1.8803708E2,1.2917412E2,1.4375222E1,1.3741992E2,8.487018E0,4.930748E2,1.3716397E2,4.354624E0,6.403019E1,3.2450497E2,8.937115E2,6.2984825E1,1.3151584E2,1.4862178E2,3.592818E0,1.2927472E2,3.394289E1,2.4701124E1,3.6920857E0,1.3928313E2,2.4418343E2,1.0589276E1,1.1317682E2,2.2209702E3,6.5490786E3,1.2474538E1,6.1467566E0,1.12564514E2,2.7308872E3,3.923009E1,1.4880699E2,7.907506E1,5.0099056E1,1.2052596E1,2.3226256E0,1.3462074E2,2.7991796E0,4.8892837E0,3.597734E0,4.88503E2,4.5718117E0,1.2045565E2,2.0404933E2,1.138168E1,8.8232983E2,5.945171E1,3.533115E0,7.926909E1,5.2246746E1,1.5605637E0,2.0322542E0,1.2265093E2,6.6237826E0,2.8077122E1,5.865769E0,2.4422684E0,1.2498173E0,1.3183699E2,7.4461327E0,1.4007753E3,8.201951E2,1.0471906E1,2.002632E0,9.19027E1,2.066181E1,2.7453592E2,2.4563513E3,1.4373982E2,5.067164E0,8.627899E0,7.044716E1,1.1423036E0,1.180322E0,2.036838E0,1.3258391E2,1.6058183E0,3.2834654E0,2.861169E0,1.7106427E0,1.1475127E2,5.7043843E0,7.7759786E0,3.6057012E0,1.1912525E0,5.826046E1,7.174334E1,7.5257483E0,1.18063446E2,4.587487E0,2.3811201E1,4.265921E0,2.5889704E0,1.2924802E2,1.3975204E3,3.2548776E0,6.3260555E1,7.569346E2,9.0352554E1,1.550145E0,2.5194733E0,1.8142338E1,1.660372E2,1.0849873E2,1.6136263E3,8.427249E2,3.9136882E0,1.1534758E0,2.1640461E1,4.8806698E1,1.1063405E0,1.3147757E2,1.6696697E0,1.6137955E0,1.0420622E2,1.0545043E1,2.874233E1,4.300101E1,1.1565864E2,2.4048054E0,2.0471323E1,3.3398788E0,1.1964917E0,2.0583858E0,4.6702957E1,1.6557598E1,1.4132497E0,1.1062235E0,9.314672E1,7.289048E1,6.934618E0,1.6066918E3,4.6770285E2,3.7502206E2,2.0434446E1,1.2060153E0,4.598573E1,2.82097E0,1.0273397E2,1.4722546E0,8.539308E0,2.0057352E0,4.1833626E1,1.1673837E0,1.661456E1,3.856763E0,8.316443E1,9.982294E0,3.4718998E1,3.8171482E1,1.4200935E0,5.5145245E0,1.389247E2,3.2877814E2,3.5128857E2,2.3733488E1,4.4752865E0,4.151044E1,6.0365795E1,4.236817E1,1.0441548E1,6.173011E0,7.682912E1,6.335306E0,6.86729E0,3.115004E0,1.826713E1,1.6451868E1,8.969954E1,4.9225163E1,2.5353506E2,7.524308E1,3.5015137E2,1.1371881E0,1.637839E1,7.355099E0,1.3729274E0,4.0137516E1,4.338595E1,1.6979847E1,4.0589256E1,1.7789154E0,5.468309E0,4.97324E0,3.8061383E0,2.3668723E0,1.8822011E0,4.453105E0,4.7757847E1,4.1941696E1,5.5315872E1,1.982192E2,1.6137217E1,5.910586E1,1.1576817E0,6.1974177E0,4.0099384E1,3.2865639E0,3.9449997E1,1.1392595E0,4.1891308E1,5.866536E0,1.0583354E1,3.135834E1,1.1741466E1,4.3574406E1,1.8713684E2,1.1082354E1,1.0407833E1,5.7293825E0,3.4847748E0,5.5621086E1,4.873111E0,6.8683543E0,2.3675666E0,8.7147875E0,5.428353E0,4.9794803E0,4.3521285E0,1.3772537E0,1.773568E0,1.7112069E0,2.4222242E1,3.1398844E1],"tree_param":{"num_deleted":"0","num_feature":"15","num_nodes":"269","size_leaf_vector":"1"}},{"base_weights":[4.3962887E-3,-1.2243148E0,1.1514312E0,-7.968303E-1,-1.4676008E0,3.7488487E-1,1.3078116E0,-1.2301345E0,7.883899E-1,-1.4750555E0,-2.5275013E-1,-6.221856E-1,9.7745985E-1,1.3588581E0,-1.3149834E0,-1.3557374E0,1.0525138E0,2.460572E-1,-8.4232396E-1,-1.4757555E0,2.8595587E-2,-1.5331237E0,7.603886E-1,2.3749025E-1,-2.3859504E-1,5.78351E-1,1.3044271E0,1.3748494E0,-2.0520577E-1,1.0905651E0,-2.4461034E-1,-1.4130449E0,2.2669686E-1,1.2771432E0,-5.838708E-1,-1.5211773E-1,1.2061371E0,-1.5492464E0,-1.4574121E0,-2.6063886E-1,-5.3800907E-2,1.3646585E-1,2.1829087E-1,1.0032787E0,-2.7467588E-1,1.4022715E0,-7.3716915E-1,1.3851099E0,8.67549E-1,-2.5987518E-1,2.2138721E-1,4.75192E-1,2.0804466E-1,-1.4206355E0,2.083716E-1,1.2966864E0,-7.4178465E-2,-2.2606242E-1,-1.8240678E-1,1.47517845E-2,2.1341904E-1,-1.4604281E0,-2.5807592E-1,-1.2395475E0,-1.4628636E0,-1.5782346E-1,1.7654064E-1,1.3120714E0,8.550812E-2,2.2828692E-1,-9.616275E-3,-2.7114493E-1,-2.2525983E-1,2.2510484E-1,1.2603109E0,-1.3652601E0,1.041259E0,-1.0187017E-1,1.7866842E-1,-1.4464351E0,-9.4194096E-1,8.3664376E-1,1.3672742E0,1.8835273E-1,-1.5895642E-1,-2.491486E-1,-2.1882246E-1,-1.1158311E0,-2.3066916E-1,-2.3943423E-1,-1.4110641E0,-2.8917694E-1,1.334897E0,1.0724258E0,-2.4612062E-1,-8.713227E-1,1.9696333E-1,-3.0325553E-1,2.1560508E-1,-1.0310198E0,-3.4858668E-1,1.2014481E0,-7.021281E-1,1.1141126E-1,-1.4510431E0,-1.573935E0,1.5667084E0,-1.8321282E-1,1.139537E0,2.2445337E-1,-2.7939348E-2,1.4928949E-1,-7.2257125E-1,-2.2901696E-1,-8.155194E-1,-1.42579E0,4.2606574E-1,1.1363543E0,2.334523E-1,2.3114985E-1,7.025072E-1,-2.0890677E-1,1.7150064E-1,-8.2418716E-1,9.862258E-2,-2.1953131E-1,1.3760073E-1,1.3272951E0,-1.2850692E0,-1.2259045E0,1.7579179E-1,-2.3877594E-1,-1.3964063E0,1.23147495E-1,-2.59996E-1,2.062029E-1,3.1506792E-1,1.3263711E-1,2.2264184E-1,-1.6834506E-1,-5.4974303E-2,-6.092755E-3,-1.1504202E0,-1.2614952E-1,-2.364967E-1,1.9063516E-1,-1.7810433E-1,2.2359614E-1,-3.40422E-1,-3.2161745E-1,2.2386393E-1,-1.9171922E-1,-3.502157E-6,2.2034828E-1,3.7020388E-1,5.518618E-2,-2.5607023E-1,2.1616228E-5,-2.2704996E-1,-2.3423994E-1,1.4325795E0,-2.2355781E-1,-1.4575489E-1,2.0326553E-1,-1.5188354E0,-1.21554956E-1,1.4578064E-1,2.7915666E-1,-1.2959065E-1,-3.983198E-1,1.694564E-1],"categories":[],"categories_nodes":[],"categories_segments":[],"categories_sizes":[],"default_left":[0,0,0,0,0,0,0,0,0,0,0,0,0,0,0,0,0,0,0,0,0,0,0,0,0,0,0,0,0,0,0,0,0,0,0,0,0,0,0,0,0,0,0,0,0,0,0,0,0,0,0,0,0,0,0,0,0,0,0,0,0,0,0,0,0,0,0,0,0,0,0,0,0,0,0,0,0,0,0,0,0,0,0,0,0,0,0,0,0,0,0,0,0,0,0,0,0,0,0,0,0,0,0,0,0,0,0,0,0,0,0,0,0,0,0,0,0,0,0,0,0,0,0,0,0,0,0,0,0,0,0,0,0,0,0,0,0,0,0,0,0,0,0,0,0,0,0,0,0,0,0,0,0,0,0,0,0,0,0,0,0,0,0,0,0,0,0,0,0,0,0],"id":3,"left_children":[1,3,5,7,9,11,13,15,17,19,21,23,25,27,29,31,33,-1,35,37,-1,39,41,-1,-1,43,45,47,49,51,-1,53,-1,55,57,-1,59,61,63,-1,-1,-1,65,67,-1,69,71,73,75,-1,-1,77,-1,79,-1,81,-1,-1,83,-1,-1,85,-1,87,89,-1,-1,91,93,-1,-1,95,-1,-1,97,99,101,-1,-1,103,105,107,109,111,-1,-1,-1,113,-1,-1,115,-1,117,119,-1,121,-1,123,-1,125,-1,127,129,-1,131,133,135,-1,137,-1,-1,-1,139,-1,141,143,145,147,-1,-1,149,-1,-1,151,-1,-1,-1,153,155,157,-1,-1,159,-1,-1,-1,-1,-1,-1,-1,-1,-1,161,-1,-1,-1,-1,-1,163,-1,-1,-1,-1,-1,165,-1,-1,-1,-1,-1,167,-1,-1,-1,169,-1,-1,-1,-1,-1,-1],"loss_changes":[3.113885E4,1.1082363E3,1.3871475E3,2.6600054E3,6.1185547E1,1.1522443E3,1.2751631E3,8.7317676E2,9.880602E2,8.067383E0,5.650581E1,1.2799641E3,1.5520715E2,2.3363867E2,8.580594E1,4.566411E2,5.924385E1,0E0,5.1149384E1,6.8447266E0,0E0,1.1443901E0,8.8393974E-1,0E0,0E0,5.227377E2,1.3210559E2,4.6871094E1,2.1094194E2,1.0444374E0,0E0,5.963672E1,0E0,5.3458557E0,6.207468E0,0E0,1.3160095E0,2.5141602E0,4.625E0,0E0,0E0,0E0,5.730626E0,1.2897763E2,0E0,4.0059814E0,8.922672E0,3.28125E-1,7.347485E1,0E0,0E0,4.0859146E0,0E0,3.3424316E1,0E0,3.3681488E0,0E0,0E0,4.453504E0,0E0,0E0,1.550415E0,0E0,1.5357513E0,1.3046875E0,0E0,0E0,2.6441895E1,1.8461673E2,0E0,0E0,1.8086483E1,0E0,0E0,1.5569031E1,1.4059639E0,4.913759E1,0E0,0E0,2.7244629E1,2.3538513E2,1.3824145E1,3.104309E0,7.7935724E0,0E0,0E0,0E0,6.5867233E0,0E0,0E0,2.8787354E1,0E0,5.3272095E0,8.395416E0,0E0,1.2737305E1,0E0,3.707995E0,0E0,8.1691675E0,0E0,5.1380325E1,1.5525279E1,0E0,8.779297E-1,8.910187E0,8.6912537E-1,0E0,2.8212738E-1,0E0,0E0,0E0,2.9185867E-1,0E0,1.1846239E1,1.9881836E1,1.161207E1,4.3536087E1,0E0,0E0,7.0253624E1,0E0,0E0,1.3902016E0,0E0,0E0,0E0,3.9003906E0,4.41529E0,2.5900574E0,0E0,0E0,9.976892E1,0E0,0E0,0E0,0E0,0E0,0E0,0E0,0E0,0E0,5.885925E-1,0E0,0E0,0E0,0E0,0E0,3.5267628E1,0E0,0E0,0E0,0E0,0E0,4.238154E0,0E0,0E0,0E0,0E0,0E0,9.395369E0,0E0,0E0,0E0,2.8138447E1,0E0,0E0,0E0,0E0,0E0,0E0],"parents":[2147483647,0,0,1,1,2,2,3,3,4,4,5,5,6,6,7,7,8,8,9,9,10,10,11,11,12,12,13,13,14,14,15,15,16,16,18,18,19,19,21,21,22,22,25,25,26,26,27,27,28,28,29,29,31,31,33,33,34,34,36,36,37,37,38,38,42,42,43,43,45,45,46,46,47,47,48,48,51,51,53,53,55,55,58,58,61,61,63,63,64,64,67,67,68,68,71,71,74,74,75,75,76,76,79,79,80,80,81,81,82,82,83,83,87,87,90,90,92,92,93,93,95,95,97,97,99,99,101,101,102,102,104,104,105,105,106,106,108,108,112,112,114,114,115,115,116,116,117,117,120,120,123,123,127,127,128,128,129,129,132,132,142,142,148,148,154,154,160,160,164,164],"right_children":[2,4,6,8,10,12,14,16,18,20,22,24,26,28,30,32,34,-1,36,38,-1,40,42,-1,-1,44,46,48,50,52,-1,54,-1,56,58,-1,60,62,64,-1,-1,-1,66,68,-1,70,72,74,76,-1,-1,78,-1,80,-1,82,-1,-1,84,-1,-1,86,-1,88,90,-1,-1,92,94,-1,-1,96,-1,-1,98,100,102,-1,-1,104,106,108,110,112,-1,-1,-1,114,-1,-1,116,-1,118,120,-1,122,-1,124,-1,126,-1,128,130,-1,132,134,136,-1,138,-1,-1,-1,140,-1,142,144,146,148,-1,-1,150,-1,-1,152,-1,-1,-1,154,156,158,-1,-1,160,-1,-1,-1,-1,-1,-1,-1,-1,-1,162,-1,-1,-1,-1,-1,164,-1,-1,-1,-1,-1,166,-1,-1,-1,-1,-1,168,-1,-1,-1,170,-1,-1,-1,-1,-1,-1],"split_conditions":[-7.913954E-3,-3.812174E-1,-5.08779E-3,-4.423808E-1,-5.08779E-3,-6.8703437E-1,1.1099351E-4,-5.08779E-3,-1.4772571E0,3.7694654E-1,1.5760114E0,-7.896968E-3,-7.864616E-3,1.3096677E1,3.7694654E-1,1.2377733E0,-7.481978E-1,2.460572E-1,-3.6270308E-1,-1.8487751E0,2.8595587E-2,-7.917674E-3,-1.0786408E-1,2.3749025E-1,-2.3859504E-1,-7.866881E-3,-1.0862525E-1,3.7694654E-1,-1.074835E-1,-1.09767005E-1,-2.4461034E-1,-7.914277E-3,2.2669686E-1,3.7694654E-1,-5.05712E-3,-1.5211773E-1,-5.054525E-3,8.420507E-1,-1.4772571E0,-2.6063886E-1,-5.3800907E-2,1.3646585E-1,-1.074835E-1,-7.885322E-3,-2.7467588E-1,1.4536847E0,-3.4791775E-2,1.5760114E0,-7.896968E-3,-2.5987518E-1,2.2138721E-1,-3.812174E-1,2.0804466E-1,-7.91735E-3,2.083716E-1,-5.0800047E-3,-7.4178465E-2,-2.2606242E-1,1.2377733E0,1.47517845E-2,2.1341904E-1,7.197238E-1,-2.5807592E-1,1.8206651E0,1.3925213E0,-1.5782346E-1,1.7654064E-1,-7.913468E-3,-3.812174E-1,2.2828692E-1,-9.616275E-3,-6.7487913E-3,-2.2525983E-1,2.2510484E-1,-4.9202847E-3,-7.342211E-1,-7.674871E-3,-1.0187017E-1,1.7866842E-1,-1.7879755E0,-9.31688E-1,-7.917674E-3,-4.9669975E-3,1.7592944E-2,-1.5895642E-1,-2.491486E-1,-2.1882246E-1,1.3925213E0,-2.3066916E-1,-2.3943423E-1,-3.6270308E-1,-2.8917694E-1,-7.9023065E-3,-7.879013E-3,-2.4612062E-1,-6.25871E-1,1.9696333E-1,-7.901821E-3,2.1560508E-1,-1.09767005E-1,-3.4858668E-1,1.4612875E0,-3.4791775E-2,1.1141126E-1,-8.0936116E-1,-1.1151782E0,-7.9158945E-3,-1.8321282E-1,-7.916865E-3,2.2445337E-1,-2.7939348E-2,1.4928949E-1,-1.0634174E-1,-2.2901696E-1,1.4536847E0,1.4536847E0,1.123369E0,-7.9045715E-3,2.334523E-1,2.3114985E-1,-7.878689E-3,-2.0890677E-1,1.7150064E-1,-1.0101355E-1,9.862258E-2,-2.1953131E-1,1.3760073E-1,1.4536847E0,1.79025E0,-4.7414545E-3,1.7579179E-1,-2.3877594E-1,-7.918645E-3,1.23147495E-1,-2.59996E-1,2.062029E-1,3.1506792E-1,1.3263711E-1,2.2264184E-1,-1.6834506E-1,-5.4974303E-2,-6.092755E-3,1.6371748E0,-1.2614952E-1,-2.364967E-1,1.9063516E-1,-1.7810433E-1,2.2359614E-1,-6.25871E-1,-3.2161745E-1,2.2386393E-1,-1.9171922E-1,-3.502157E-6,2.2034828E-1,4.0278845E-3,5.518618E-2,-2.5607023E-1,2.1616228E-5,-2.2704996E-1,-2.3423994E-1,-1.09767005E-1,-2.2355781E-1,-1.4575489E-1,2.0326553E-1,1.1478677E0,-1.21554956E-1,1.4578064E-1,2.7915666E-1,-1.2959065E-1,-3.983198E-1,1.694564E-1],"split_indices":[4,2,5,2,5,2,4,5,3,7,2,4,4,7,7,8,2,0,3,3,0,4,0,0,0,4,0,7,0,0,0,4,0,7,5,0,5,2,3,0,0,0,0,4,0,2,0,2,4,0,0,2,0,4,0,5,0,0,8,0,0,2,0,2,2,0,0,4,2,0,0,4,0,0,5,3,4,0,0,2,2,4,5,5,0,0,0,2,0,0,3,0,4,4,0,2,0,4,0,0,0,0,0,0,2,2,4,0,4,0,0,0,0,0,2,2,3,4,0,0,4,0,0,0,0,0,0,2,7,5,0,0,4,0,0,0,0,0,0,0,0,0,2,0,0,0,0,0,2,0,0,0,0,0,0,0,0,0,0,0,0,0,0,0,2,0,0,0,0,0,0],"split_type":[0,0,0,0,0,0,0,0,0,0,0,0,0,0,0,0,0,0,0,0,0,0,0,0,0,0,0,0,0,0,0,0,0,0,0,0,0,0,0,0,0,0,0,0,0,0,0,0,0,0,0,0,0,0,0,0,0,0,0,0,0,0,0,0,0,0,0,0,0,0,0,0,0,0,0,0,0,0,0,0,0,0,0,0,0,0,0,0,0,0,0,0,0,0,0,0,0,0,0,0,0,0,0,0,0,0,0,0,0,0,0,0,0,0,0,0,0,0,0,0,0,0,0,0,0,0,0,0,0,0,0,0,0,0,0,0,0,0,0,0,0,0,0,0,0,0,0,0,0,0,0,0,0,0,0,0,0,0,0,0,0,0,0,0,0,0,0,0,0,0,0],"sum_hessian":[2.2092094E4,1.0666261E4,1.1425833E4,3.8701643E3,6.796096E3,1.9158069E3,9.510025E3,3.039556E3,8.306084E2,6.7544346E3,4.1661278E1,7.216585E2,1.1941484E3,9.328942E3,1.8108386E2,2.881412E3,1.5814394E2,5.7437994E2,2.562285E2,6.7516787E3,2.7559109E0,1.8176779E1,2.3484497E1,2.0838644E2,5.132721E2,5.389969E2,6.551515E2,9.234646E3,9.42956E1,1.3048559E1,1.680353E2,2.8231208E3,5.8291267E1,1.3924857E2,1.8895369E1,2.4539905E2,1.082943E1,1.3319346E3,5.419744E3,1.682175E1,1.3550277E0,1.9970636E1,3.5138614E0,4.545026E2,8.44943E1,6.254879E2,2.9663603E1,9.049876E3,1.8477075E2,4.9892128E1,4.4403477E1,3.920281E0,9.128279E0,2.8156692E3,7.451668E0,1.3794627E2,1.3022883E0,5.4479456E0,1.3447422E1,1.1258248E0,9.703605E0,4.3117896E2,9.0075555E2,1.3787698E2,5.281867E3,1.4329727E0,2.0808887E0,3.397581E2,1.147445E2,6.236973E2,1.7905691E0,1.8110464E1,1.1553139E1,8.908457E3,1.4141882E2,1.284219E1,1.7192857E2,1.4178214E0,2.5024595E0,2.6697588E3,1.4591031E2,2.0060196E1,1.1788608E2,9.6990385E0,3.7483842E0,2.512688E2,1.7991016E2,8.627247E1,5.160451E1,4.2412095E3,1.0406581E3,1.9239755E0,3.3783414E2,7.120648E1,4.3538017E1,1.3191186E1,4.919277E0,5.758806E0,1.3566002E2,1.0622475E1,2.2197144E0,1.577452E2,1.4183373E1,5.436444E0,2.6643223E3,1.16846275E2,2.9064024E1,2.3145E0,1.7745697E1,1.1679947E2,1.0866126E0,5.3739696E0,4.3250685E0,4.163976E1,4.463271E1,1.032605E3,8.053064E0,1.198578E2,2.1797632E2,3.503778E1,3.6168705E1,1.1124318E1,2.0668683E0,3.7241955E0,2.034611E0,9.309152E0,1.3133235E0,1.5058978E2,7.1554136E0,1.1208266E1,2.9751067E0,1.9278131E3,7.365092E2,1.0759127E0,1.1577036E2,1.86812E1,1.0382824E1,9.324072E0,8.421625E0,1.4413737E0,2.883695E0,1.3766051E1,3.0866657E1,4.880142E1,9.838035E2,5.5534782E0,2.4995863E0,1.0308177E2,1.6776031E1,6.8951907E0,2.9273514E1,2.2961457E0,1.4280498E0,1.4555597E2,5.033819E0,1.0672947E0,6.088119E0,1.5097611E0,9.698505E0,7.2499835E2,1.1510919E1,1.3903392E1,1.6963264E1,7.1070094E0,9.669023E0,1.4794804E0,3.554339E0,1.0400225E1,1.1106936E0,7.1148405E0,2.5541816E0],"tree_param":{"num_deleted":"0","num_feature":"15","num_nodes":"171","size_leaf_vector":"1"}},{"base_weights":[5.8668745E-3,-1.1294689E0,1.0833739E0,-8.059693E-1,-1.3581264E0,-5.2834123E-1,1.1967344E0,-2.2543488E-1,-6.873258E-1,-1.3590367E0,4.1183376E-1,2.1748927E-1,-2.2168054E-1,1.2614177E0,-2.2101614E-1,-7.9698414E-1,2.928081E-1,-1.3599519E0,-9.9354166E-1,-1.264842E-1,1.947431E-1,1.2850475E0,1.1894735E0,5.4819095E-1,-2.2614399E-1,-8.3633757E-1,1.1368679E0,1.3144413E0,-2.2157846E-1,-3.1763342E-1,-2.2080283E-1,1.4044932E-1,-2.0791985E-1,1.3023386E0,1.2374343E0,-1.5700303E-1,1.292821E0,-1.6226965E-1,1.0345899E0,-7.602837E-1,-1.2749753E0,1.325817E0,-1.666298E-1,1.3273463E0,-8.864817E-2,-8.2344525E-2,1.5223427E-2,-1.4695698E-1,1.3033829E0,2.1059716E-1,-2.2531404E-1,1.2941134E0,-6.1633866E-2,8.2027537E-1,-2.3410307E-1,1.2610273E0,-1.8878743E-1,-6.70525E-1,-1.331371E0,-1.1408969E0,-2.2439659E-1,-1.5820505E-1,2.3159415E-1,1.3413211E0,1.2261915E-2,2.1192499E-1,1.1123773E0,2.1251601E-1,1.1665173E0,-1.1114562E0,1.262427E0,-1.7414072E-1,1.2903942E0,6.2789214E-1,-7.138981E-1,-6.758164E-1,1.7416707E-1,-2.2921653E-1,-3.351466E-1,8.274299E-1,-1.3407518E0,2.2241424E-1,1.0293612E0,-1.2806971E-1,1.20830595E-1,5.6335427E-2,1.8421297E-1,1.229671E0,7.843624E-1,-2.1008651E-1,5.2235268E-2,2.114161E-1,2.8374717E-1,4.532291E-1,2.116117E-1,-1.812756E-1,1.9485854E-1,-1.1051303E0,1.5922074E-1,-6.779487E-1,2.5548217E-1,9.54467E-1,-2.0703897E-1,1.589111E-1,-1.24219835E-1,-9.3011236E-1,-2.2098537E-1,5.3345114E-1,1.9538568E-1,8.5161734E-1,2.0977251E-1,-1.3058156E-1,1.0995549E0,-4.0614884E-2,1.11414894E-1,1.2839551E-1,-2.9095884E-2,-2.223821E-1,-2.3405802E-1,-6.700723E-1,-1.977761E-1,2.0600581E-1,-1.638957E-1,4.1589352E-1,1.8798971E-1,-5.785193E-1,-1.9453314E-1,1.3269854E-1,5.211996E-2,-2.6737891E-2,2.0430318E-1,2.0304972E-1,3.0782694E-1,9.341989E-2,-1.6099346E-1,-6.7202663E-1,-4.110901E-1,1.4922121E-1,-1.0789068E-1,-1.19661056E-1,6.177677E-3,1.6895233E-1,-1.172948E-1,1.5833704E-1,-4.3783316E-1,-1.0862542E-1,-1.3442965E-1,-3.9269622E-2,-9.214556E-2,-1.1181468E-1,1.5411879E-2],"categories":[],"categories_nodes":[],"categories_segments":[],"categories_sizes":[],"default_left":[0,0,0,0,0,0,0,0,0,0,0,0,0,0,0,0,0,0,0,0,0,0,0,0,0,0,0,0,0,0,0,0,0,0,0,0,0,0,0,0,0,0,0,0,0,0,0,0,0,0,0,0,0,0,0,0,0,0,0,0,0,0,0,0,0,0,0,0,0,0,0,0,0,0,0,0,0,0,0,0,0,0,0,0,0,0,0,0,0,0,0,0,0,0,0,0,0,0,0,0,0,0,0,0,0,0,0,0,0,0,0,0,0,0,0,0,0,0,0,0,0,0,0,0,0,0,0,0,0,0,0,0,0,0,0,0,0,0,0,0,0,0,0,0,0,0,0,0,0,0,0],"id":4,"left_children":[1,3,5,7,9,11,13,-1,15,17,19,-1,-1,21,23,25,27,29,31,-1,-1,33,35,37,-1,39,41,43,-1,45,-1,-1,-1,47,49,-1,51,53,55,57,59,61,-1,63,-1,-1,-1,-1,65,-1,-1,67,-1,69,-1,71,73,75,77,79,-1,-1,-1,81,83,-1,85,-1,87,89,91,-1,93,95,97,99,-1,-1,101,103,105,-1,107,-1,-1,-1,-1,109,111,-1,-1,-1,113,115,-1,-1,-1,117,-1,119,121,123,-1,-1,-1,125,-1,127,-1,129,-1,-1,131,-1,-1,-1,-1,133,-1,135,-1,-1,-1,137,-1,139,-1,-1,-1,141,-1,-1,143,-1,-1,145,147,-1,-1,-1,-1,-1,-1,-1,149,-1,-1,-1,-1,-1,-1],"loss_changes":[2.441227E4,7.1768066E2,1.8712617E3,2.7755762E2,9.728516E0,1.0557109E3,8.775293E2,0E0,3.6003198E2,5.517578E-1,4.4014683E0,0E0,0E0,1.40234375E1,3.7792575E2,2.301001E2,5.7361487E2,2.4726562E0,1.0687393E1,0E0,0E0,4.048828E0,5.0844067E2,8.768693E1,0E0,9.749414E1,2.6083313E1,5.7525635E0,0E0,3.5799995E-1,0E0,0E0,0E0,1.2763672E1,2.9410474E2,0E0,5.186035E0,1.3172662E2,4.192183E1,1.2817383E2,4.694031E0,1.4430466E1,0E0,3.8104858E0,0E0,0E0,0E0,0E0,8.125E-1,0E0,0E0,2.7019043E0,0E0,5.210099E1,0E0,1.0096207E1,1.0899775E1,2.0819275E1,2.7011414E1,7.9490234E1,0E0,0E0,0E0,4.5663452E-1,2.4643528E0,0E0,7.8450775E-1,0E0,4.8558044E0,3.4552364E0,1.548233E0,0E0,8.2432556E-1,1.1403058E1,1.1230618E1,4.486267E0,0E0,0E0,3.387333E1,5.33582E0,2.8308105E-1,0E0,1.2242146E0,0E0,0E0,0E0,0E0,3.7719421E0,1.9396338E1,0E0,0E0,0E0,8.603316E-1,8.9410216E-1,0E0,0E0,0E0,3.5173035E0,0E0,8.411804E0,8.57778E0,8.273916E-1,0E0,0E0,0E0,4.2999077E-1,0E0,1.844871E-1,0E0,1.1537657E1,0E0,0E0,3.3653946E0,0E0,0E0,0E0,0E0,3.4859328E0,0E0,8.060303E-1,0E0,0E0,0E0,3.241667E0,0E0,7.2166824E-1,0E0,0E0,0E0,9.050623E0,0E0,0E0,3.588143E0,0E0,0E0,3.560791E-1,3.55201E-1,0E0,0E0,0E0,0E0,0E0,0E0,0E0,5.590095E-1,0E0,0E0,0E0,0E0,0E0,0E0],"parents":[2147483647,0,0,1,1,2,2,3,3,4,4,5,5,6,6,8,8,9,9,10,10,13,13,14,14,15,15,16,16,17,17,18,18,21,21,22,22,23,23,25,25,26,26,27,27,29,29,33,33,34,34,36,36,37,37,38,38,39,39,40,40,41,41,43,43,48,48,51,51,53,53,55,55,56,56,57,57,58,58,59,59,63,63,64,64,66,66,68,68,69,69,70,70,72,72,73,73,74,74,75,75,78,78,79,79,80,80,82,82,87,87,88,88,92,92,93,93,97,97,99,99,100,100,101,101,105,105,107,107,109,109,112,112,117,117,119,119,123,123,125,125,129,129,132,132,135,135,136,136,144,144],"right_children":[2,4,6,8,10,12,14,-1,16,18,20,-1,-1,22,24,26,28,30,32,-1,-1,34,36,38,-1,40,42,44,-1,46,-1,-1,-1,48,50,-1,52,54,56,58,60,62,-1,64,-1,-1,-1,-1,66,-1,-1,68,-1,70,-1,72,74,76,78,80,-1,-1,-1,82,84,-1,86,-1,88,90,92,-1,94,96,98,100,-1,-1,102,104,106,-1,108,-1,-1,-1,-1,110,112,-1,-1,-1,114,116,-1,-1,-1,118,-1,120,122,124,-1,-1,-1,126,-1,128,-1,130,-1,-1,132,-1,-1,-1,-1,134,-1,136,-1,-1,-1,138,-1,140,-1,-1,-1,142,-1,-1,144,-1,-1,146,148,-1,-1,-1,-1,-1,-1,-1,150,-1,-1,-1,-1,-1,-1],"split_conditions":[-7.913954E-3,5.0448626E-1,-1.2502123E-1,-1.2502123E-1,3.7694654E-1,-7.889043E-3,3.7694654E-1,-2.2543488E-1,-7.917674E-3,-7.918645E-3,1.1986411E0,2.1748927E-1,-2.2168054E-1,-7.864778E-3,-6.412653E-3,3.425235E-2,3.8480487E0,-5.0752804E-2,2.2174275E0,-1.264842E-1,1.947431E-1,2.2174275E0,-7.864616E-3,-1.0710291E-1,-2.2614399E-1,-7.918645E-3,5.0837904E-1,3.7694654E-1,-2.2157846E-1,-1.8494445E-1,-2.2080283E-1,1.4044932E-1,-2.0791985E-1,-7.913468E-3,-7.894057E-3,-1.5700303E-1,1.2311003E1,4.6168566E0,-9.3021266E-2,-6.1511827E-1,2.2174275E0,-6.098847E-1,-1.666298E-1,2.878175E-2,-8.864817E-2,-8.2344525E-2,1.5223427E-2,-1.4695698E-1,-1.02155305E-1,2.1059716E-1,-2.2531404E-1,-1.0862525E-1,-6.1633866E-2,-7.896968E-3,-2.3410307E-1,-7.896968E-3,1.3191488E0,-6.098847E-1,-6.098847E-1,-1.09767005E-1,-2.2439659E-1,-1.5820505E-1,2.3159415E-1,-1.09767005E-1,-7.916542E-3,2.1192499E-1,-1.0101355E-1,2.1251601E-1,-6.983506E-3,-1.0938642E-1,-1.08244665E-1,-1.7414072E-1,1.79025E0,-3.4791775E-2,1.027007E1,-9.873004E-2,1.7416707E-1,-2.2921653E-1,5.0837904E-1,-6.1511827E-1,-1.0596116E-1,2.2241424E-1,-1.0938642E-1,-1.2806971E-1,1.20830595E-1,5.6335427E-2,1.8421297E-1,-1.08244665E-1,-6.7487913E-3,-2.1008651E-1,5.2235268E-2,2.114161E-1,-7.878689E-3,-7.875293E-3,2.116117E-1,-1.812756E-1,1.9485854E-1,-7.7712806E-3,1.5922074E-1,-1.0786408E-1,1.8232238E0,-4.1358945E-1,-2.0703897E-1,1.589111E-1,-1.24219835E-1,-6.1511827E-1,-2.2098537E-1,-7.91735E-3,1.9538568E-1,-7.782442E-3,2.0977251E-1,-1.3058156E-1,7.861299E-1,-4.0614884E-2,1.11414894E-1,1.2839551E-1,-2.9095884E-2,1.4027728E-1,-2.3405802E-1,-1.0900584E-1,-1.977761E-1,2.0600581E-1,-1.638957E-1,-4.3096247E-1,1.8798971E-1,-1.08244665E-1,-1.9453314E-1,1.3269854E-1,5.211996E-2,-7.789883E-3,2.0430318E-1,2.0304972E-1,3.4708422E-1,9.341989E-2,-1.6099346E-1,-1.09767005E-1,-1.0862525E-1,1.4922121E-1,-1.0789068E-1,-1.19661056E-1,6.177677E-3,1.6895233E-1,-1.172948E-1,1.5833704E-1,1.8232238E0,-1.0862542E-1,-1.3442965E-1,-3.9269622E-2,-9.214556E-2,-1.1181468E-1,1.5411879E-2],"split_indices":[4,12,1,1,7,4,7,0,4,4,12,0,0,4,4,12,6,13,1,0,0,1,4,0,0,4,13,7,0,13,0,0,0,4,4,0,0,7,0,12,1,13,0,9,0,0,0,0,0,0,0,0,0,4,0,4,7,13,13,0,0,0,0,0,4,0,0,0,4,0,0,0,7,0,7,0,0,0,13,12,0,0,0,0,0,0,0,0,4,0,0,0,4,4,0,0,0,4,0,0,0,12,0,0,0,12,0,4,0,4,0,0,0,0,0,0,0,0,0,0,0,0,0,13,0,0,0,0,0,4,0,0,4,0,0,0,0,0,0,0,0,0,0,0,0,0,0,0,0,0,0],"split_type":[0,0,0,0,0,0,0,0,0,0,0,0,0,0,0,0,0,0,0,0,0,0,0,0,0,0,0,0,0,0,0,0,0,0,0,0,0,0,0,0,0,0,0,0,0,0,0,0,0,0,0,0,0,0,0,0,0,0,0,0,0,0,0,0,0,0,0,0,0,0,0,0,0,0,0,0,0,0,0,0,0,0,0,0,0,0,0,0,0,0,0,0,0,0,0,0,0,0,0,0,0,0,0,0,0,0,0,0,0,0,0,0,0,0,0,0,0,0,0,0,0,0,0,0,0,0,0,0,0,0,0,0,0,0,0,0,0,0,0,0,0,0,0,0,0,0,0,0,0,0,0],"sum_hessian":[1.995355E4,9.716026E3,1.0237524E4,4.025443E3,5.690583E3,6.725021E2,9.565022E3,6.788534E2,3.3465896E3,5.68789E3,2.692834E0,2.0796375E2,4.6453833E2,9.147775E3,4.172467E2,3.0100132E3,3.3657645E2,5.6709688E3,1.6921736E1,1.0766057E0,1.6162282E0,6.8733857E3,2.27439E3,2.5226196E2,1.6498476E2,2.950538E3,5.947528E1,2.0838344E2,1.28193E2,2.976757E0,5.6679917E3,1.9975513E0,1.4924184E1,5.0229263E3,1.8504594E3,1.0361541E2,2.1707744E3,1.0278906E2,1.4947289E2,2.5168784E3,4.3365952E2,5.505438E1,4.420902E0,2.0723274E2,1.1507075E0,1.8777419E0,1.0990151E0,1.9654596E0,5.020961E3,1.8095267E3,4.0932625E1,2.1693245E3,1.4499929E0,5.835695E1,4.4432114E1,1.26101685E2,2.3371208E1,2.1769048E3,3.3997363E2,1.9824988E2,2.3540965E2,1.9541243E0,5.3100254E1,2.0503398E2,2.198758E0,4.953892E3,6.706879E1,1.9291621E3,2.4016231E2,1.0587427E1,4.776952E1,1.1253684E0,1.2497632E2,9.06974E0,1.4301467E1,2.170929E3,5.975763E0,3.140493E2,2.5924332E1,1.7984486E1,1.802654E2,1.844634E2,2.057058E1,1.0127434E0,1.1860144E0,2.3950193E0,6.467377E1,2.0419928E2,3.596303E1,9.474857E0,1.1125697E0,4.556768E1,2.2018416E0,2.5203378E0,1.2245598E2,2.0064917E0,7.063249E0,1.1902107E1,2.3993597E0,2.1662412E3,4.687809E0,1.0926685E1,1.4997646E1,1.6772573E1,1.2119128E0,1.0901185E1,1.693642E2,6.4097834E0,1.4160795E1,3.1166761E1,1.7303252E2,5.6960435E0,3.0266987E1,1.1094161E0,1.0924255E0,1.4793699E0,1.0409681E0,3.7468681E0,8.155239E0,2.1373413E3,2.8900063E1,2.600823E0,2.086986E0,3.834428E0,7.092257E0,6.085922E0,4.8152633E0,1.5220518E0,4.8877316E0,1.0167447E1,2.0999315E1,2.4918428E1,5.3485594E0,1.9632056E0,1.7836626E0,2.1197505E3,1.7590744E1,2.7174718E0,1.1169561E0,4.684134E0,1.401788E0,3.8165226E0,6.350924E0,2.659042E0,2.6895175E0,2.0883108E3,3.1439594E1,9.681812E0,7.908931E0,1.6288222E0,1.0606953E0],"tree_param":{"num_deleted":"0","num_feature":"15","num_nodes":"151","size_leaf_vector":"1"}},{"base_weights":[7.3852157E-3,-1.0460924E0,1.0299809E0,-2.1516895E-1,-1.2905755E0,-5.041997E-1,1.1379868E0,-2.1266481E-1,2.6148468E-1,-1.2934446E0,8.670803E-1,2.076551E-1,-1.2902021E0,1.2008644E0,-2.020453E-1,1.3018373E0,-1.1537079E0,-1.0716283E0,-1.305164E0,-5.3264875E-2,1.7819543E-1,-2.1020831E-1,-4.714271E-3,8.488584E-1,1.2467824E0,5.110498E-1,-2.1227525E-1,7.456669E-1,1.5785608E0,-1.3790216E0,2.200446E-1,-7.028549E-1,-1.2949705E0,-1.2177054E0,-1.3089347E0,9.601917E-1,-6.8522316E-1,2.0270477E-1,1.104255E0,-1.5844318E-1,9.8490125E-1,-5.2630293E-1,1.2035409E0,2.6483557E-1,1.1444095E0,-1.0590675E0,-1.4715718E0,3.9338753E-1,-2.1235904E-1,9.659379E-1,-2.10264E-1,-2.1103123E-1,-7.7117674E-2,-1.0685477E0,-2.110264E-1,-2.1894707E-1,-2.1013087E-1,6.15013E-1,1.2004414E0,1.7451969E-1,-2.0641515E-1,-1.7636138E-1,1.1445994E0,7.8291184E-1,-2.2002763E-1,1.1986818E0,-1.05877094E-1,7.6294243E-1,-7.2123015E-1,1.2352905E0,-1.512916E-1,1.3380629E0,-8.41539E-2,-6.323565E-1,-2.0981677E-1,-1.5482162E0,-2.1420549E-1,4.6216145E-1,-1.2287568E-1,-1.6969077E-1,2.2499922E-1,9.0731233E-1,-2.0927082E-1,1.1708312E0,-2.335473E-1,2.0465307E-1,-4.04687E-1,-3.216436E-1,2.0667896E-1,2.7717093E-1,1.1664491E0,-9.9243075E-1,1.1833752E0,-1.5484193E-1,1.2294052E0,-9.242344E-1,6.1458534E-1,1.4974885E-1,-5.298102E-2,-2.143699E-1,-4.950873E-1,2.0674326E-1,9.684438E-2,2.1994463E-1,6.2167216E-2,-2.3948327E-1,2.025816E-1,-2.5700295E-1,-2.0831248E-1,5.260723E-1,-7.504093E-1,5.4334104E-1,-1.076655E0,-1.400696E-1,2.184417E-1,1.2481835E0,4.462173E-1,-6.8820035E-1,7.7774394E-1,1.126407E-1,-1.6851602E-2,1.9053213E-1,3.5255183E-2,5.68715E-2,-1.9241199E-1,-8.137549E-2,2.0167026E-1,2.0181336E-1,3.6912024E-1,2.202978E-2,-1.1126769E0,-2.5608468E-1,1.0618359E0,-6.5957814E-1,-2.8084217E-2,1.4210632E-1,-1.4229947E-1,7.3181534E-1,-1.8822971E-1,1.0338734E0,2.708457E-1,-1.9529043E-2,-1.6154735E-1,-3.4683E-1,1.7404161E-1,-1.9673093E-1,-4.5387805E-2,7.6994455E-1,2.0787716E-1,-3.0198073E-1,1.974008E-1,-1.8253745E-1,2.6987314E-1,1.6191654E-1,5.3413333E-3,1.17101E-1,-3.3960916E-2,-5.8484423E-1,-2.1606241E-1,1.4019948E-1,-1.7205462E-1,1.854197E-1,4.6134748E-2,-3.7241486E-1,-1.7415965E-1,3.1452605E-1,-9.273724E-1,1.0914401E0,-1.7836322E-1,2.066238E-1,-2.6222836E-2,-2.1138668E-1,6.525601E-1,3.2859355E-2,-1.21610515E-1,1.9229302E-1,-2.438517E-1,1.5938625E-1,-1.4397459E-1,-1.8734466E-1,1.0981786E-1,-1.685485E-1,-1.7570846E-1,1.8841942E-1,-1.9379869E-1,-1.9494613E-1,-3.0563777E-2,2.1337593E-1,-8.346744E-2,7.846851E-1,-1.2588355E-1,-5.342969E-1,1.249506E-1,2.170755E-1,-4.949357E-1,1.372447E-1,2.761579E-1,-1.3058944E-1,1.0376531E-1,-1.6364278E-1,-7.0128465E-1,-4.0073372E-2,1.19853556E-1,-1.24774665E-1,-3.1048818E-2,-1.4202963E-1,1.624316E-1,-6.429923E-2,7.336267E-2,-7.1156E-2,-1.5605938E-1],"categories":[],"categories_nodes":[],"categories_segments":[],"categories_sizes":[],"default_left":[0,0,0,0,0,0,0,0,0,0,0,0,0,0,0,0,0,0,0,0,0,0,0,0,0,0,0,0,0,0,0,0,0,0,0,0,0,0,0,0,0,0,0,0,0,0,0,0,0,0,0,0,0,0,0,0,0,0,0,0,0,0,0,0,0,0,0,0,0,0,0,0,0,0,0,0,0,0,0,0,0,0,0,0,0,0,0,0,0,0,0,0,0,0,0,0,0,0,0,0,0,0,0,0,0,0,0,0,0,0,0,0,0,0,0,0,0,0,0,0,0,0,0,0,0,0,0,0,0,0,0,0,0,0,0,0,0,0,0,0,0,0,0,0,0,0,0,0,0,0,0,0,0,0,0,0,0,0,0,0,0,0,0,0,0,0,0,0,0,0,0,0,0,0,0,0,0,0,0,0,0,0,0,0,0,0,0,0,0,0,0,0,0,0,0,0,0,0,0,0,0,0,0,0,0,0,0,0,0,0,0],"id":5,"left_children":[1,3,5,7,9,11,13,-1,15,17,19,-1,21,23,25,27,29,31,33,-1,-1,-1,-1,35,37,39,-1,41,43,45,47,49,51,53,55,57,59,-1,61,63,65,67,69,-1,71,73,75,77,-1,79,-1,-1,-1,81,-1,-1,-1,83,85,87,-1,-1,89,91,-1,93,95,97,99,101,-1,103,-1,105,-1,107,-1,109,-1,111,-1,113,-1,115,-1,-1,117,-1,-1,119,121,123,125,-1,127,129,131,-1,-1,-1,133,-1,135,-1,-1,-1,137,-1,-1,139,141,143,145,-1,-1,147,149,151,153,-1,-1,-1,-1,-1,-1,-1,-1,-1,155,-1,157,159,161,163,165,-1,-1,167,-1,169,171,-1,-1,173,-1,-1,-1,175,-1,-1,-1,-1,177,-1,-1,-1,-1,179,-1,-1,-1,-1,-1,181,-1,183,185,187,-1,-1,-1,-1,189,-1,-1,-1,-1,-1,-1,-1,-1,191,-1,-1,193,-1,-1,-1,-1,195,197,199,-1,201,203,-1,205,-1,-1,207,209,-1,-1,-1,-1,-1,-1,-1,-1,-1,-1],"loss_changes":[1.9432355E4,1.8046816E3,1.5172832E3,1.0553646E3,4.3618164E1,8.466044E2,7.2078613E2,0E0,2.0760242E3,1.6425781E1,3.0408826E0,0E0,2.5848389E0,1.3097168E2,3.0358984E2,1.238761E2,1.8524585E2,2.7887756E1,5.5078125E-1,0E0,0E0,0E0,0E0,1.6218274E2,8.3691406E-1,7.447246E1,0E0,1.5896161E2,1.06397705E1,1.3645813E1,2.3049244E1,1.3385085E2,3.1726074E-1,2.0971375E0,1.8076172E0,7.241791E1,3.2786743E1,0E0,1.1505798E1,1.1145062E2,3.2145996E1,1.8808613E1,1.4726654E1,0E0,2.0808449E1,1.1025467E1,2.5595093E0,6.454813E0,0E0,1.7281738E1,0E0,0E0,0E0,4.7647057E1,0E0,0E0,0E0,4.1732217E2,5.0916443E1,6.666272E1,0E0,0E0,1.8465576E0,4.06097E1,0E0,8.771591E0,1.4376466E1,2.045928E0,7.973007E0,8.547791E0,0E0,3.987732E-1,0E0,3.126376E1,0E0,3.6846924E-1,0E0,6.085087E0,0E0,7.399817E0,0E0,9.931435E0,0E0,1.5534332E1,0E0,0E0,7.109451E0,0E0,0E0,7.2713184E-1,5.363312E-1,3.203455E0,5.181389E0,0E0,9.142151E-1,2.42101E0,5.355895E0,0E0,0E0,0E0,3.6533165E0,0E0,6.494604E0,0E0,0E0,0E0,1.7416542E1,0E0,0E0,8.836136E0,5.112183E-1,3.4630039E0,1.9804192E-1,0E0,0E0,3.0517578E0,5.421509E1,7.1401105E0,6.6520333E-1,0E0,0E0,0E0,0E0,0E0,0E0,0E0,0E0,0E0,8.1289107E-1,0E0,3.471222E-1,5.630493E0,2.2799778E-1,3.7922688E0,4.4496274E0,0E0,0E0,1.2499466E1,0E0,6.832115E0,2.977538E1,0E0,0E0,8.5964435E-1,0E0,0E0,0E0,1.9723911E1,0E0,0E0,0E0,0E0,5.7516212E0,0E0,0E0,0E0,0E0,4.1147666E0,0E0,0E0,0E0,0E0,0E0,3.055758E0,0E0,4.7506704E0,5.7830334E-1,5.9981995E0,0E0,0E0,0E0,0E0,4.153969E0,0E0,0E0,0E0,0E0,0E0,0E0,0E0,0E0,6.782253E0,0E0,0E0,1.0266123E0,0E0,0E0,0E0,0E0,8.15094E-1,3.9332998E0,7.484648E-1,0E0,1.1105713E0,2.3473132E-1,0E0,5.1355095E0,0E0,0E0,9.859212E-1,2.1539831E-1,0E0,0E0,0E0,0E0,0E0,0E0,0E0,0E0,0E0,0E0],"parents":[2147483647,0,0,1,1,2,2,3,3,4,4,5,5,6,6,8,8,9,9,10,10,12,12,13,13,14,14,15,15,16,16,17,17,18,18,23,23,24,24,25,25,27,27,28,28,29,29,30,30,31,31,32,32,33,33,34,34,35,35,36,36,38,38,39,39,40,40,41,41,42,42,44,44,45,45,46,46,47,47,49,49,53,53,57,57,58,58,59,59,62,62,63,63,65,65,66,66,67,67,68,68,69,69,71,71,73,73,75,75,77,77,79,79,81,81,83,83,86,86,89,89,90,90,91,91,92,92,94,94,95,95,96,96,100,100,102,102,106,106,109,109,110,110,111,111,112,112,115,115,116,116,117,117,118,118,128,128,130,130,131,131,132,132,133,133,134,134,137,137,139,139,140,140,143,143,147,147,152,152,157,157,163,163,165,165,166,166,167,167,172,172,181,181,184,184,189,189,190,190,191,191,193,193,194,194,196,196,199,199,200,200],"right_children":[2,4,6,8,10,12,14,-1,16,18,20,-1,22,24,26,28,30,32,34,-1,-1,-1,-1,36,38,40,-1,42,44,46,48,50,52,54,56,58,60,-1,62,64,66,68,70,-1,72,74,76,78,-1,80,-1,-1,-1,82,-1,-1,-1,84,86,88,-1,-1,90,92,-1,94,96,98,100,102,-1,104,-1,106,-1,108,-1,110,-1,112,-1,114,-1,116,-1,-1,118,-1,-1,120,122,124,126,-1,128,130,132,-1,-1,-1,134,-1,136,-1,-1,-1,138,-1,-1,140,142,144,146,-1,-1,148,150,152,154,-1,-1,-1,-1,-1,-1,-1,-1,-1,156,-1,158,160,162,164,166,-1,-1,168,-1,170,172,-1,-1,174,-1,-1,-1,176,-1,-1,-1,-1,178,-1,-1,-1,-1,180,-1,-1,-1,-1,-1,182,-1,184,186,188,-1,-1,-1,-1,190,-1,-1,-1,-1,-1,-1,-1,-1,192,-1,-1,194,-1,-1,-1,-1,196,198,200,-1,202,204,-1,206,-1,-1,208,210,-1,-1,-1,-1,-1,-1,-1,-1,-1,-1],"split_conditions":[-7.913954E-3,-7.001684E-1,-1.2502123E-1,-1.2502123E-1,-5.0344714E-3,-7.889043E-3,3.7694654E-1,-2.1266481E-1,-3.812174E-1,-5.606448E-1,-6.25871E-1,2.076551E-1,-9.31688E-1,-5.08779E-3,-6.412653E-3,-4.423808E-1,1.3925213E0,-3.812174E-1,-4.2112118E-1,-5.3264875E-2,1.7819543E-1,-2.1020831E-1,-4.714271E-3,8.420507E-1,1.5760114E0,-1.0710291E-1,-2.1227525E-1,-7.918645E-3,-7.1760887E-1,1.0255408E0,2.0041552E0,5.0448626E-1,-5.08779E-3,-3.812174E-1,4.8209414E-1,-7.864616E-3,-7.900527E-3,2.0270477E-1,-7.912336E-3,5.5590587E0,-9.3021266E-2,-1.6044854E0,1.1305592E0,2.6483557E-1,5.0448626E-1,-7.1760887E-1,-7.1760887E-1,-7.0888865E-1,-2.1235904E-1,-4.423808E-1,-2.10264E-1,-2.1103123E-1,-7.7117674E-2,-5.47942E-1,-2.110264E-1,-2.1894707E-1,-2.1013087E-1,-7.866881E-3,-1.0862525E-1,-7.9023065E-3,-2.0641515E-1,-1.7636138E-1,-4.9202847E-3,-7.896968E-3,-2.2002763E-1,-7.896968E-3,-4.364921E-3,5.0448626E-1,-8.0936116E-1,-7.0888865E-1,-1.512916E-1,-5.08779E-3,-8.41539E-2,7.197238E-1,-2.0981677E-1,-6.1511827E-1,-2.1420549E-1,-5.0800047E-3,-1.2287568E-1,-1.1151782E0,2.2499922E-1,-6.8703437E-1,-2.0927082E-1,-7.879013E-3,-2.335473E-1,2.0465307E-1,-6.25871E-1,-3.216436E-1,2.0667896E-1,-1.0253589E-1,-6.129661E-1,-6.8703437E-1,-6.8703437E-1,-1.5484193E-1,-6.8703437E-1,-8.3887234E-2,4.0278845E-3,1.4974885E-1,-5.298102E-2,-2.143699E-1,-5.05712E-3,2.0674326E-1,-1.09767005E-1,2.1994463E-1,6.2167216E-2,-2.3948327E-1,-1.09767005E-1,-2.5700295E-1,-2.0831248E-1,1.4536847E0,-1.09767005E-1,-7.917674E-3,-5.0781174E-3,-1.400696E-1,2.184417E-1,-7.913468E-3,-7.878689E-3,-6.7487913E-3,-5.5868644E-3,1.126407E-1,-1.6851602E-2,1.9053213E-1,3.5255183E-2,5.68715E-2,-1.9241199E-1,-8.137549E-2,2.0167026E-1,2.0181336E-1,-4.497274E-3,2.202978E-2,-7.7712806E-3,-3.812174E-1,1.79025E0,-6.8703437E-1,-7.1760887E-1,1.4210632E-1,-1.4229947E-1,2.2174275E0,-1.8822971E-1,5.0448626E-1,1.7595017E0,-1.9529043E-2,-1.6154735E-1,-6.8272793E-1,1.7404161E-1,-1.9673093E-1,-4.5387805E-2,-1.1151782E0,2.0787716E-1,-3.0198073E-1,1.974008E-1,-1.8253745E-1,-8.73125E-2,1.6191654E-1,5.3413333E-3,1.17101E-1,-3.3960916E-2,-4.777315E-3,-2.1606241E-1,1.4019948E-1,-1.7205462E-1,1.854197E-1,4.6134748E-2,-1.09767005E-1,-1.7415965E-1,-3.9015673E-3,-3.7097614E-3,8.420507E-1,-1.7836322E-1,2.066238E-1,-2.6222836E-2,-2.1138668E-1,-7.1760887E-1,3.2859355E-2,-1.21610515E-1,1.9229302E-1,-2.438517E-1,1.5938625E-1,-1.4397459E-1,-1.8734466E-1,1.0981786E-1,-7.481978E-1,-1.7570846E-1,1.8841942E-1,1.7592944E-2,-1.9494613E-1,-3.0563777E-2,2.1337593E-1,-8.346744E-2,-1.0786408E-1,1.8206651E0,5.0448626E-1,1.249506E-1,-3.3615385E-3,-1.0634174E-1,1.372447E-1,-1.074835E-1,-1.3058944E-1,1.0376531E-1,1.462128E-1,-7.1760887E-1,-4.0073372E-2,1.19853556E-1,-1.24774665E-1,-3.1048818E-2,-1.4202963E-1,1.624316E-1,-6.429923E-2,7.336267E-2,-7.1156E-2,-1.5605938E-1],"split_indices":[4,10,1,1,5,4,7,0,2,10,2,0,2,5,4,2,2,2,10,0,0,0,0,2,2,0,0,4,10,2,2,12,5,2,12,4,4,0,4,7,0,2,0,0,12,10,10,10,0,2,0,0,0,12,0,0,0,4,0,4,0,0,5,4,0,4,5,12,2,10,0,5,0,2,0,12,0,5,0,2,0,2,0,4,0,0,2,0,0,0,10,2,2,0,2,0,0,0,0,0,5,0,0,0,0,0,0,0,0,2,0,4,5,0,0,4,4,4,4,0,0,0,0,0,0,0,0,0,5,0,4,2,7,2,10,0,0,1,0,12,2,0,0,10,0,0,0,2,0,0,0,0,0,0,0,0,0,5,0,0,0,0,0,0,0,5,5,2,0,0,0,0,10,0,0,0,0,0,0,0,0,2,0,0,5,0,0,0,0,0,2,12,0,5,0,0,0,0,0,12,10,0,0,0,0,0,0,0,0,0,0],"split_type":[0,0,0,0,0,0,0,0,0,0,0,0,0,0,0,0,0,0,0,0,0,0,0,0,0,0,0,0,0,0,0,0,0,0,0,0,0,0,0,0,0,0,0,0,0,0,0,0,0,0,0,0,0,0,0,0,0,0,0,0,0,0,0,0,0,0,0,0,0,0,0,0,0,0,0,0,0,0,0,0,0,0,0,0,0,0,0,0,0,0,0,0,0,0,0,0,0,0,0,0,0,0,0,0,0,0,0,0,0,0,0,0,0,0,0,0,0,0,0,0,0,0,0,0,0,0,0,0,0,0,0,0,0,0,0,0,0,0,0,0,0,0,0,0,0,0,0,0,0,0,0,0,0,0,0,0,0,0,0,0,0,0,0,0,0,0,0,0,0,0,0,0,0,0,0,0,0,0,0,0,0,0,0,0,0,0,0,0,0,0,0,0,0,0,0,0,0,0,0,0,0,0,0,0,0,0,0,0,0,0,0],"sum_hessian":[1.8036322E4,8.884003E3,9.152319E3,2.020118E3,6.8638853E3,6.0170245E2,8.550616E3,6.1208234E2,1.4080356E3,6.85517E3,8.715014E0,1.8385712E2,4.178453E2,8.1674814E3,3.8313492E2,8.115326E2,5.965031E2,3.4864755E2,6.5065225E3,1.3424435E0,7.3725705E0,4.1618002E2,1.6652793E0,9.447267E2,7.222755E3,2.3325912E2,1.4987581E2,2.7085382E2,5.406788E2,5.124505E2,8.405259E1,1.330718E2,2.1557574E2,2.823199E2,6.2242026E3,8.8115265E2,6.357403E1,7.107655E3,1.15099915E2,9.6948555E1,1.3631058E2,7.1653E1,1.9920084E2,4.7921634E2,6.1462406E1,1.1776597E2,3.946845E2,7.615813E1,7.894466E0,3.4708908E1,9.836289E1,2.1361746E2,1.9582921E0,1.0551239E2,1.768075E2,1.6076991E3,4.6165034E3,3.630707E2,5.180819E2,2.60682E1,3.7505833E1,1.6122845E0,1.1348763E2,5.446768E1,4.2480873E1,1.1389038E2,2.242019E1,9.027996E0,6.2625004E1,1.9669829E2,2.5025446E0,5.52264E1,6.236008E0,4.2983776E1,7.478219E1,2.5613882E2,1.385457E2,7.2426796E1,3.7313266E0,9.537939E0,2.5170967E1,1.0295062E1,9.521733E1,2.860846E2,7.698611E1,4.994712E2,1.8610744E1,8.52903E0,1.753917E1,3.1246555E0,1.10362976E2,9.752867E0,4.4714817E1,1.1796873E0,1.1271069E2,1.0364524E1,1.2055667E1,8.007123E0,1.0208728E0,1.5825611E1,4.6799393E1,1.9014459E2,6.553694E0,5.3843754E1,1.3826416E0,2.1004553E1,2.1979225E1,2.2163074E2,3.4508076E1,6.933834E1,3.0884602E0,5.56433E0,3.9736092E0,1.8519542E0,8.443109E0,2.5783792E2,2.824666E1,1.5348571E1,3.2621732E0,1.0998008E0,2.0248547E0,1.0926457E2,1.0984039E0,1.1236442E0,8.629223E0,1.2639625E0,4.345085E1,1.1046287E2,2.2478254E0,1.6067042E0,8.757819E0,4.2362714E0,7.8193955E0,3.4304188E1,1.2495205E1,3.6972158E0,2.856478E0,1.6163069E1,5.8161554E0,2.2172646E1,4.716569E1,1.2819686E0,1.8064915E0,2.2024524E0,3.3618777E0,2.95113E0,1.0224793E0,1.803486E1,2.3980307E2,6.7147694E0,2.153189E1,1.0425194E1,4.923377E0,2.2566133E0,1.0055598E0,1.2430141E0,1.0048113E0,3.6408544E0,5.116965E0,1.7392552E0,2.4970162E0,6.6598625E0,1.159533E0,2.1366072E1,1.2938116E1,9.518936E0,2.9762685E0,1.3846911E1,2.3161573E0,1.8421547E1,3.751099E0,8.738222E0,3.842747E1,1.1414685E0,1.060984E0,1.565548E1,2.3793797E0,3.1410754E0,1.7823017E0,2.5670152E0,1.0738391E0,1.7562037E1,3.8040366E0,3.0900326E0,6.4289036E0,1.7155746E0,1.2606939E0,1.2315872E1,1.5310396E0,3.284473E1,5.582741E0,1.2946678E1,4.615358E0,2.8370934E0,3.5918102E0,2.8738646E1,4.106086E0,2.9312985E0,2.651442E0,4.6361103E0,8.310568E0,1.7797388E0,1.0573546E0,1.083064E0,2.5087461E0,1.5059394E0,2.6001465E0,3.6239042E0,1.0122062E0,5.470086E0,2.8404815E0],"tree_param":{"num_deleted":"0","num_feature":"15","num_nodes":"211","size_leaf_vector":"1"}},{"base_weights":[5.631143E-3,-6.2248987E-1,1.0779854E0,-8.781732E-2,-1.1971226E0,1.1279787E0,-6.134894E-1,8.540734E-1,-3.909187E-1,-8.184094E-1,-1.2271333E0,6.773742E-1,1.1899319E0,-1.1517048E0,8.550459E-1,-9.644189E-1,1.9545713E-1,2.2372314E-1,-1.0053211E0,-1.1961883E0,6.6931784E-1,-1.0989897E0,-2.0080835E-1,5.188282E-1,1.1750209E0,1.1906773E0,-1.511955E-1,-1.1919261E0,1.0380594E-1,2.1411024E-1,1.7299636E-1,1.7550233E-1,-1.135837E0,7.30414E-1,-6.4832014E-1,-2.0025915E-1,-8.281932E-1,-1.9512405E-1,-9.701189E-5,1.1749057E0,-9.3408525E-1,-9.2184794E-1,-1.1642203E0,3.9136055E-1,9.164753E-1,1.916142E-1,2.3834888E-2,1.1932108E0,9.8391485E-1,-5.3541858E-2,-1.948816E-1,1.5654753E-1,-2.1390384E-1,-5.432701E-1,-2.0667669E-1,-2.3331411E-1,9.204633E-1,-8.33618E-1,3.769977E-1,3.5615596E-1,-1.0686648E0,1.226278E0,-8.953894E-2,-3.1910285E-1,-1.703898E-1,-1.8671262E-1,8.540964E-2,-1.9817318E-1,-8.300246E-1,-2.7740556E-1,5.3202164E-1,1.1618024E0,-3.576555E-1,1.9370186E-1,1.5923483E-2,-9.655798E-2,1.7185384E-1,-3.3198258E-1,4.5022085E-2,4.851462E-1,-2.0237897E-1,-3.2536736E-1,1.6904952E-1,1.2660398E0,3.1610674E-1,-7.7993524E-1,-1.9845645E-1,6.5142506E-1,-2.0087264E-1,1.4622624E-1,-1.4878839E-2,-1.1664999E0,1.8943241E-1,4.8049268E-1,2.0455481E-1,1.4270028E-1,-1.6523609E-1,-5.6367587E-2,-1.7838246E-1,1.8242003E-1,-2.0110093E-1,5.839614E-1,-1.439662E-1,1.9084904E-1,5.0096583E-1,1.7695995E-1,-2.0069352E-1,-5.1870626E-1,5.799366E-2,-1.6463192E-1,1.4062856E-1,-1.6303831E-1,-4.951366E-2,3.312151E-1,-1.6275403E-1,9.0540624E-1,1.4635234E0,-2.1582986E-1,5.683942E-1,-8.305384E-1,1.4561467E-1,1.464882E-1,1.8742408E-1,-2.0317136E-1,3.6429057E-1,-1.2377063E0,-5.650096E-1,1.4047152E-1,-5.3946603E-2,5.472527E-1,1.8178517E-1,-1.7034113E-3,1.2390913E-1,9.186288E-4,-1.3827962E-1,5.2702594E-1,-1.6559924E-1,9.83334E-1,-1.9566263E-1,2.4355327E-1,2.1364161E-1,9.432947E-1,-7.893664E-2,-8.5113174E-1,-4.1845152E-1,-1.3062097E-1,8.314092E-1,3.3927664E-1,-8.414565E-1,1.0594282E0,5.3955264E-2,-2.0274392E-1,-4.225922E-1,1.8602592E-1,-2.0552404E-1,6.4553425E-2,6.600018E-1,-3.5376254E-2,3.9043732E-2,6.846291E-2,1.0787175E-1,1.7228721E-1,4.3482366E-1,6.6884696E-1,1.8957925E-1,2.923131E-1,-6.607302E-1,-8.911379E-1,-1.096988E-1,4.068536E-1,-2.0023201E-1,2.2659775E-2,1.5556407E-1,7.057949E-2,5.945941E-1,-1.5908471E-1,-5.6519173E-2,1.8778118E-1,8.637647E-2,-1.8559068E-1,2.1427439E-1,1.5390469E-1,-1.7807873E-1,1.0499881E-1,1.7105521E-1,5.871811E-1,6.1475947E-2,7.3711437E-1,-8.700401E-2,-8.430725E-1,5.2518E-1,-3.6329865E-1,-8.975897E-1,-1.4555983E-1,-2.5523883E-1,9.493052E-2,-5.1659063E-2,-2.5596432E-2,5.749353E-2,4.0888768E-1,8.0340993E-1,-3.664293E-2,-2.5937504E-1,3.3596733E-1,6.9448024E-1,-3.5415253E-1,1.0901635E-1,1.8464077E-1,1.0283228E-1,-1.500913E-1,-4.1119106E-2,8.300983E-1,1.0207801E-1,-5.715685E-1,1.2646171E-1,-1.5122974E-1,-4.0083446E-2,1.28314635E-2,-1.0253901E-1,6.0345876E-1,-8.011332E-2,1.738146E-1,4.6932316E-1,-4.792891E-2,2.311283E-2,-1.0209065E-1,-2.0777121E-1,5.9390277E-1,-9.384376E-2,4.1510966E-1,1.4382555E-1,6.812594E-2,-1.3620315E-1,1.3132986E-1,1.7667395E-1,-1.6543612E-1,1.4970875E-1,-4.273085E-2,-6.3377607E-1,7.8773916E-2,-4.183807E-2,1.4554082E-1,1.3754778E-1,1.5570888E-2,9.709978E-2,-1.0665605E-1,-5.6391362E-2,1.2089045E-1,3.4141436E-2,1.0991195E-1,-4.564743E-2,3.0350007E-2,-1.8923478E-2,1.2666417E-2,-4.4520102E-2,-1.220251E-1,-5.6982987E-2,6.1000355E-2,-3.6191486E-3,-2.3361867E-2,1.7818835E-2],"categories":[],"categories_nodes":[],"categories_segments":[],"categories_sizes":[],"default_left":[0,0,0,0,0,0,0,0,0,0,0,0,0,0,0,0,0,0,0,0,0,0,0,0,0,0,0,0,0,0,0,0,0,0,0,0,0,0,0,0,0,0,0,0,0,0,0,0,0,0,0,0,0,0,0,0,0,0,0,0,0,0,0,0,0,0,0,0,0,0,0,0,0,0,0,0,0,0,0,0,0,0,0,0,0,0,0,0,0,0,0,0,0,0,0,0,0,0,0,0,0,0,0,0,0,0,0,0,0,0,0,0,0,0,0,0,0,0,0,0,0,0,0,0,0,0,0,0,0,0,0,0,0,0,0,0,0,0,0,0,0,0,0,0,0,0,0,0,0,0,0,0,0,0,0,0,0,0,0,0,0,0,0,0,0,0,0,0,0,0,0,0,0,0,0,0,0,0,0,0,0,0,0,0,0,0,0,0,0,0,0,0,0,0,0,0,0,0,0,0,0,0,0,0,0,0,0,0,0,0,0,0,0,0,0,0,0,0,0,0,0,0,0,0,0,0,0,0,0,0,0,0,0,0,0,0,0,0,0,0,0,0,0,0,0,0,0,0,0,0,0,0,0,0,0,0,0,0,0,0,0],"id":6,"left_children":[1,3,5,7,9,11,13,15,17,19,21,23,25,27,29,31,-1,33,35,37,39,41,-1,43,45,47,-1,49,-1,51,-1,-1,53,55,57,-1,59,-1,-1,61,63,65,67,69,71,-1,-1,73,75,-1,-1,-1,77,79,-1,81,83,85,87,89,91,93,-1,95,-1,-1,-1,-1,97,99,101,103,105,-1,-1,-1,-1,107,-1,109,-1,111,113,115,117,119,-1,121,-1,-1,123,125,-1,127,-1,-1,-1,-1,-1,-1,-1,129,-1,-1,131,-1,-1,133,-1,-1,-1,-1,-1,135,-1,137,139,-1,141,143,145,147,-1,-1,149,151,153,-1,-1,155,-1,-1,-1,157,-1,159,-1,161,-1,-1,-1,163,165,167,169,-1,171,173,175,177,179,-1,181,-1,-1,-1,183,-1,-1,-1,-1,-1,185,187,-1,189,191,193,-1,195,-1,-1,-1,197,199,-1,-1,-1,-1,201,-1,-1,-1,-1,-1,203,205,207,-1,209,211,213,215,-1,217,-1,-1,-1,-1,219,221,223,225,227,229,231,-1,-1,-1,-1,-1,233,235,237,239,-1,-1,-1,-1,241,-1,-1,243,-1,-1,-1,245,247,-1,249,-1,-1,-1,251,-1,253,-1,-1,255,-1,-1,257,-1,-1,-1,259,-1,-1,-1,-1,-1,-1,-1,-1,-1,-1,-1,-1,-1,-1,-1],"loss_changes":[1.079139E4,3.104041E3,5.011255E2,1.4947833E3,5.434082E1,1.5966797E2,1.3577469E2,8.1297504E2,1.4960367E3,2.0344421E2,4.4873047E0,5.4394104E1,9.098145E0,9.784485E0,6.030323E0,7.360924E1,0E0,8.757551E2,7.917456E1,2.0779724E0,6.0807804E1,2.843567E0,0E0,2.653012E1,7.8860474E-1,1.4726562E0,0E0,5.364075E-1,0E0,4.290401E0,0E0,0E0,1.4872955E1,2.29781E2,1.3872635E2,0E0,3.1910693E2,0E0,0E0,5.682808E0,9.615488E-1,3.2388306E1,3.616516E0,3.8100765E1,4.04338E1,0E0,0E0,1.269043E0,8.538292E0,0E0,0E0,0E0,6.092994E-1,2.7900429E1,0E0,7.7315226E0,2.1829596E2,1.1942474E1,5.052118E1,3.8344112E1,2.0489795E2,7.9439545E-1,0E0,4.5151186E0,0E0,0E0,0E0,0E0,4.6258945E0,9.676309E1,2.5112617E1,4.1235352E-1,2.862683E1,0E0,0E0,0E0,0E0,1.1690897E0,0E0,1.0052191E1,0E0,2.0232925E0,7.790117E0,4.609729E1,1.5949109E2,2.5658203E1,0E0,2.4371372E1,0E0,0E0,5.3822334E1,3.7504272E1,0E0,1.5467951E0,0E0,0E0,0E0,0E0,0E0,0E0,0E0,5.7336655E0,0E0,0E0,5.433426E-1,0E0,0E0,1.1129462E0,0E0,0E0,0E0,0E0,0E0,9.860327E0,0E0,4.037497E1,3.6517334E-1,0E0,8.068568E1,4.0324097E0,1.9646883E1,9.684242E0,0E0,0E0,1.8897377E1,6.9207764E0,1.1696495E2,0E0,0E0,4.858864E0,0E0,0E0,0E0,2.3646231E-1,0E0,1.746254E-1,0E0,9.415268E0,0E0,0E0,0E0,1.2199097E1,2.6704525E1,2.8438416E0,1.83858E1,0E0,1.3962135E0,2.8394995E0,2.2960234E-1,7.763634E-1,1.8990356E1,0E0,1.2662001E1,0E0,0E0,0E0,2.0191193E-1,0E0,0E0,0E0,0E0,0E0,1.6946282E0,8.380592E0,0E0,2.0436993E1,3.0639534E0,1.2120056E0,0E0,1.9886086E0,0E0,0E0,0E0,1.4545561E0,5.01451E-1,0E0,0E0,0E0,0E0,5.7125807E-1,0E0,0E0,0E0,0E0,0E0,3.4598017E-1,2.7576065E0,3.106327E0,0E0,4.042492E-1,8.090546E0,2.419602E0,3.5063362E-1,0E0,6.7046106E-1,0E0,0E0,0E0,0E0,2.644667E0,3.051653E-1,9.0674114E-1,5.402534E-1,2.316851E0,3.8838243E-1,2.8164E0,0E0,0E0,0E0,0E0,0E0,6.4827366E0,6.2271953E0,1.462655E-1,1.1848817E0,0E0,0E0,0E0,0E0,1.155446E0,0E0,0E0,2.2180378E-1,0E0,0E0,0E0,4.199525E-1,2.4978256E-1,0E0,1.5826429E0,0E0,0E0,0E0,1.7420858E-1,0E0,5.9718704E-1,0E0,0E0,1.6574574E-1,0E0,0E0,2.088322E-1,0E0,0E0,0E0,1.7892362E-1,0E0,0E0,0E0,0E0,0E0,0E0,0E0,0E0,0E0,0E0,0E0,0E0,0E0,0E0,0E0],"parents":[2147483647,0,0,1,1,2,2,3,3,4,4,5,5,6,6,7,7,8,8,9,9,10,10,11,11,12,12,13,13,14,14,15,15,17,17,18,18,19,19,20,20,21,21,23,23,24,24,25,25,27,27,29,29,32,32,33,33,34,34,36,36,39,39,40,40,41,41,42,42,43,43,44,44,47,47,48,48,52,52,53,53,55,55,56,56,57,57,58,58,59,59,60,60,61,61,63,63,68,68,69,69,70,70,71,71,72,72,77,77,79,79,81,81,82,82,83,83,84,84,85,85,87,87,90,90,91,91,93,93,101,101,104,104,107,107,113,113,115,115,116,116,118,118,119,119,120,120,121,121,124,124,125,125,126,126,129,129,133,133,135,135,137,137,141,141,142,142,143,143,144,144,146,146,147,147,148,148,149,149,150,150,152,152,156,156,162,162,163,163,165,165,166,166,167,167,169,169,173,173,174,174,179,179,185,185,186,186,187,187,189,189,190,190,191,191,192,192,194,194,199,199,200,200,201,201,202,202,203,203,204,204,205,205,211,211,212,212,213,213,214,214,219,219,222,222,226,226,227,227,229,229,233,233,235,235,238,238,241,241,245,245],"right_children":[2,4,6,8,10,12,14,16,18,20,22,24,26,28,30,32,-1,34,36,38,40,42,-1,44,46,48,-1,50,-1,52,-1,-1,54,56,58,-1,60,-1,-1,62,64,66,68,70,72,-1,-1,74,76,-1,-1,-1,78,80,-1,82,84,86,88,90,92,94,-1,96,-1,-1,-1,-1,98,100,102,104,106,-1,-1,-1,-1,108,-1,110,-1,112,114,116,118,120,-1,122,-1,-1,124,126,-1,128,-1,-1,-1,-1,-1,-1,-1,130,-1,-1,132,-1,-1,134,-1,-1,-1,-1,-1,136,-1,138,140,-1,142,144,146,148,-1,-1,150,152,154,-1,-1,156,-1,-1,-1,158,-1,160,-1,162,-1,-1,-1,164,166,168,170,-1,172,174,176,178,180,-1,182,-1,-1,-1,184,-1,-1,-1,-1,-1,186,188,-1,190,192,194,-1,196,-1,-1,-1,198,200,-1,-1,-1,-1,202,-1,-1,-1,-1,-1,204,206,208,-1,210,212,214,216,-1,218,-1,-1,-1,-1,220,222,224,226,228,230,232,-1,-1,-1,-1,-1,234,236,238,240,-1,-1,-1,-1,242,-1,-1,244,-1,-1,-1,246,248,-1,250,-1,-1,-1,252,-1,254,-1,-1,256,-1,-1,258,-1,-1,-1,260,-1,-1,-1,-1,-1,-1,-1,-1,-1,-1,-1,-1,-1,-1,-1],"split_conditions":[1.2377733E0,-6.1511827E-1,2.878175E-2,-1.1151782E0,5.0837904E-1,-5.647076E-1,2.3041664E-1,-1.1763417E0,-3.407054E-1,-6.098847E-1,-3.5442054E-1,-3.407054E-1,1.8206651E0,6.891189E-2,-1.9187795E-2,-1.7879755E0,1.9545713E-1,8.420507E-1,-6.8703437E-1,-1.06722325E-1,5.0448626E-1,-3.812174E-1,-2.0080835E-1,-1.05199985E-1,-1.08244665E-1,1.4536847E0,-1.511955E-1,-1.6044854E0,1.0380594E-1,-1.0025238E-1,1.7299636E-1,1.7550233E-1,-3.5442054E-1,-8.0936116E-1,1.7595017E0,-2.0025915E-1,-3.812174E-1,-1.9512405E-1,-9.701189E-5,-1.09767005E-1,8.343884E-2,-4.423808E-1,1.7595017E0,-6.8703437E-1,7.861299E-1,1.916142E-1,2.3834888E-2,6.644381E-2,1.5760114E0,-5.3541858E-2,-1.948816E-1,1.5654753E-1,-3.4791775E-2,-1.6044854E0,-2.0667669E-1,-9.928514E-1,-3.812174E-1,-3.4791775E-2,2.126482E0,-6.25871E-1,1.6479895E0,-6.25871E-1,-8.953894E-2,-1.6240862E-1,-1.703898E-1,-1.8671262E-1,8.540964E-2,-1.9817318E-1,1.8206651E0,-1.1763417E0,-1.0862525E-1,-5.9910383E-2,-1.7879755E0,1.9370186E-1,1.5923483E-2,-9.655798E-2,1.7185384E-1,1.8930231E-1,4.5022085E-2,-1.7268122E0,-2.0237897E-1,-1.0540148E0,3.8480487E0,-4.423808E-1,7.197238E-1,-1.0862525E-1,-1.9845645E-1,2.0041552E0,-2.0087264E-1,1.4622624E-1,-4.423808E-1,2.0041552E0,1.8943241E-1,-2.4469943E-1,2.0455481E-1,1.4270028E-1,-1.6523609E-1,-5.6367587E-2,-1.7838246E-1,1.8242003E-1,-2.0110093E-1,-1.09767005E-1,-1.439662E-1,1.9084904E-1,-6.6284933E-3,1.7695995E-1,-2.0069352E-1,6.891189E-2,5.799366E-2,-1.6463192E-1,1.4062856E-1,-1.6303831E-1,-4.951366E-2,-9.31688E-1,-1.6275403E-1,-6.25871E-1,-3.5442054E-1,-2.1582986E-1,-3.5442054E-1,1.3925213E0,-3.5442054E-1,-3.5442054E-1,1.8742408E-1,-2.0317136E-1,-3.1327513E-1,1.19539E0,2.126482E0,1.4047152E-1,-5.3946603E-2,-3.5442054E-1,1.8178517E-1,-1.7034113E-3,1.2390913E-1,-8.3887234E-2,-1.3827962E-1,-3.5442054E-1,-1.6559924E-1,-1.09767005E-1,-1.9566263E-1,2.4355327E-1,2.1364161E-1,-9.949121E-2,2.9318676E0,-3.5442054E-1,1.4536847E0,-1.3062097E-1,-1.08244665E-1,-1.09767005E-1,1.8206651E0,-3.2699025E-1,-9.383293E-2,-2.0274392E-1,8.420507E-1,1.8602592E-1,-2.0552404E-1,6.4553425E-2,-6.1511827E-1,-3.5376254E-2,3.9043732E-2,6.846291E-2,1.0787175E-1,1.7228721E-1,-1.0786408E-1,-1.09767005E-1,1.8957925E-1,4.0278845E-3,4.8195686E0,-1.09767005E-1,-1.096988E-1,-3.5442054E-1,-2.0023201E-1,2.2659775E-2,1.5556407E-1,1.8206651E0,-1.074835E-1,-1.5908471E-1,-5.6519173E-2,1.8778118E-1,8.637647E-2,-2.4469943E-1,2.1427439E-1,1.5390469E-1,-1.7807873E-1,1.0499881E-1,1.7105521E-1,-1.0938642E-1,-1.0596116E-1,7.8088725E-1,-8.700401E-2,-7.817846E-2,1.216952E0,3.7432747E0,6.907077E0,-1.4555983E-1,-1.0938642E-1,9.493052E-2,-5.1659063E-2,-2.5596432E-2,5.749353E-2,-1.0786408E-1,-1.0177472E-1,-2.8584486E-1,-2.309843E-1,-3.5442054E-1,-6.8703437E-1,-7.481978E-1,1.0901635E-1,1.8464077E-1,1.0283228E-1,-1.500913E-1,-4.1119106E-2,2.8908598E-1,2.0230308E0,3.108459E0,4.713005E0,-1.5122974E-1,-4.0083446E-2,1.28314635E-2,-1.0253901E-1,1.8206651E0,-8.011332E-2,1.738146E-1,-8.3887234E-2,-4.792891E-2,2.311283E-2,-1.0209065E-1,-1.4869347E-1,-7.481978E-1,-9.384376E-2,-7.481978E-1,1.4382555E-1,6.812594E-2,-1.3620315E-1,2.3428176E-1,1.7667395E-1,1.4612875E0,1.4970875E-1,-4.273085E-2,3.468873E0,7.8773916E-2,-4.183807E-2,-1.0900584E-1,1.3754778E-1,1.5570888E-2,9.709978E-2,-1.6240862E-1,-5.6391362E-2,1.2089045E-1,3.4141436E-2,1.0991195E-1,-4.564743E-2,3.0350007E-2,-1.8923478E-2,1.2666417E-2,-4.4520102E-2,-1.220251E-1,-5.6982987E-2,6.1000355E-2,-3.6191486E-3,-2.3361867E-2,1.7818835E-2],"split_indices":[8,12,9,2,13,2,2,2,11,13,11,11,2,9,0,2,0,2,2,0,12,2,0,0,0,2,0,2,0,0,0,0,11,2,2,0,2,0,0,0,13,2,2,2,0,0,0,0,2,0,0,0,0,2,0,2,2,0,2,2,11,2,0,11,0,0,0,0,2,2,0,0,2,0,0,0,0,9,0,2,0,2,6,2,2,0,0,2,0,0,2,2,0,11,0,0,0,0,0,0,0,0,0,0,0,0,0,9,0,0,0,0,0,2,0,2,11,0,11,2,11,11,0,0,11,11,2,0,0,11,0,0,0,0,0,11,0,0,0,0,0,0,0,11,2,0,0,0,2,11,11,0,2,0,0,0,12,0,0,0,0,0,0,0,0,0,0,0,0,11,0,0,0,2,0,0,0,0,0,11,0,0,0,0,0,0,0,2,0,0,0,0,0,0,0,0,0,0,0,0,0,11,11,11,2,2,0,0,0,0,0,0,0,0,0,0,0,0,0,2,0,0,0,0,0,0,11,2,0,2,0,0,0,0,0,0,0,0,0,0,0,0,0,0,0,11,0,0,0,0,0,0,0,0,0,0,0,0,0,0,0],"split_type":[0,0,0,0,0,0,0,0,0,0,0,0,0,0,0,0,0,0,0,0,0,0,0,0,0,0,0,0,0,0,0,0,0,0,0,0,0,0,0,0,0,0,0,0,0,0,0,0,0,0,0,0,0,0,0,0,0,0,0,0,0,0,0,0,0,0,0,0,0,0,0,0,0,0,0,0,0,0,0,0,0,0,0,0,0,0,0,0,0,0,0,0,0,0,0,0,0,0,0,0,0,0,0,0,0,0,0,0,0,0,0,0,0,0,0,0,0,0,0,0,0,0,0,0,0,0,0,0,0,0,0,0,0,0,0,0,0,0,0,0,0,0,0,0,0,0,0,0,0,0,0,0,0,0,0,0,0,0,0,0,0,0,0,0,0,0,0,0,0,0,0,0,0,0,0,0,0,0,0,0,0,0,0,0,0,0,0,0,0,0,0,0,0,0,0,0,0,0,0,0,0,0,0,0,0,0,0,0,0,0,0,0,0,0,0,0,0,0,0,0,0,0,0,0,0,0,0,0,0,0,0,0,0,0,0,0,0,0,0,0,0,0,0,0,0,0,0,0,0,0,0,0,0,0,0,0,0,0,0,0,0],"sum_hessian":[1.6019231E4,1.0102317E4,5.916914E3,5.233712E3,4.8686055E3,5.7473774E3,1.6953633E2,1.2737384E3,3.9599734E3,3.5955527E2,4.5090503E3,6.9613275E2,5.0512446E3,1.2422416E2,4.531218E1,2.0540285E2,1.0683356E3,1.979919E3,1.9800544E3,2.8689893E2,7.265635E1,3.3796735E2,4.171083E3,5.2948566E2,1.6664706E2,5.049909E3,1.3356012E0,1.2182336E2,2.4008017E0,1.1715222E1,3.3596954E1,1.5470116E1,1.8993274E2,1.2523928E3,7.275262E2,8.619406E2,1.1181139E3,2.8545154E2,1.4473865E0,5.5441635E1,1.721471E1,9.503094E1,2.4293642E2,4.0245956E2,1.2702611E2,1.6559991E2,1.0471553E0,4.9840664E3,6.584268E1,1.6210186E0,1.2020234E2,3.799702E0,7.9155207E0,3.6719032E1,1.532137E2,2.0625569E2,1.0461371E3,6.163288E2,1.111974E2,1.8862653E2,9.2948737E2,5.41211E1,1.3205342E0,3.3218637E0,1.3892847E1,8.22542E1,1.2776729E1,2.0538016E2,3.7556255E1,6.97699E1,3.3268967E2,1.06590775E2,2.0435331E1,4.9828213E3,1.2451684E0,2.6690607E0,6.3173622E1,6.6431823E0,1.2723383E0,1.5043314E1,2.1675716E1,1.680096E2,3.8246086E1,6.648659E2,3.812712E2,5.4425244E2,7.207631E1,9.5553535E1,1.5643869E1,7.5840614E1,1.1278591E2,8.909783E2,3.8509083E1,3.0232759E0,5.1097828E1,1.128784E0,2.1930797E0,1.426081E1,2.3295446E1,2.8324821E1,4.1445076E1,3.2151025E2,1.1179396E1,1.0360319E2,2.9875875E0,7.6278625E0,1.2807468E1,5.4219346E0,1.2212474E0,2.7132945E0,1.233002E1,3.4680169E0,1.6454158E2,3.422691E1,4.0191774E0,2.3723154E2,4.2763437E2,5.0106716E1,3.311645E2,5.161361E2,2.8116371E1,4.8346554E1,4.7206978E1,2.5921864E1,8.686405E1,7.9572046E2,9.525783E1,2.0076606E0,1.0156153E0,3.0279675E2,1.871351E1,1.3388236E0,1.6487639E0,2.5083623E0,2.9135723E0,3.042846E1,3.7984495E0,2.2930086E2,7.9306808E0,3.3422076E2,9.341363E1,2.0942131E2,1.2174318E2,4.9055597E2,2.5580135E1,1.1711845E1,1.6404526E1,4.1001976E1,7.344579E0,2.6065235E1,6.0798817E1,7.841538E2,1.1566638E1,2.7506609E1,6.775122E1,1.3212003E2,1.7067673E2,1.3582404E0,1.150122E0,1.9548817E1,1.08796425E1,1.998744E2,2.9426453E1,9.608061E1,1.133407E2,7.4622925E1,4.7120255E1,3.9605374E2,9.450221E1,1.2960595E1,1.2619539E1,2.871397E0,1.3533128E1,2.059946E1,2.0402514E1,4.961776E0,2.382804E0,2.0987362E1,5.0778747E0,5.184454E1,8.954275E0,3.6809986E0,7.885639E0,1.6775421E2,2.9225225E0,2.049146E1,8.934993E0,9.129622E1,4.7843914E0,1.225432E1,6.2368607E1,2.201242E1,2.5107836E1,3.921242E2,3.9295418E0,1.0560938E1,2.3996575E0,1.1659731E1,8.939729E0,1.2364502E1,8.0380125E0,1.7670301E1,3.417424E1,7.3692822E0,1.3122178E1,5.564509E0,3.3704839E0,1.6700066E1,7.459615E1,1.0264307E1,1.9900135E0,3.5687584E1,2.6681025E1,1.5327421E1,6.6849995E0,2.344375E1,1.664084E0,2.5000212E0,1.4295205E0,1.044416E1,1.9203416E0,3.238893E0,4.7991195E0,6.962541E0,1.070776E1,2.8157232E0,3.1358517E1,6.0208297E0,1.3484523E0,6.627828E0,6.49435E0,2.1957462E0,3.3687627E0,1.0042928E1,2.5644655E1,2.0721844E1,5.959179E0,3.4520407E0,1.18753805E1,3.3204517E0,3.3645477E0,4.185773E0,6.258387E0,1.6795614E0,3.119558E0,1.9213161E1,1.2145355E1,3.6445131E0,2.3763165E0,4.835387E0,1.7924409E0,8.4021225E0,1.6408049E0,6.490114E0,1.423173E1,7.206102E0,4.6692786E0,1.2421002E0,2.943673E0,1.6675606E1,2.537556E0],"tree_param":{"num_deleted":"0","num_feature":"15","num_nodes":"261","size_leaf_vector":"1"}},{"base_weights":[5.5691465E-3,-9.520947E-1,9.5429623E-1,-1.9893849E-1,-1.1871574E0,1.0161957E0,-9.9513763E-1,-1.0213791E0,1.9389348E-1,-9.283306E-1,-1.2015411E0,1.0728843E0,-2.0664017E-1,-1.9280665E-1,1.7406529E-1,5.7058114E-1,-1.9731806E-1,1.166722E0,-1.0200126E0,-5.136438E-1,-1.9381936E-1,-1.9541058E-1,-1.0775663E0,1.1451818E0,8.6423093E-1,4.4137836E-1,-1.9570567E-1,-3.3972162E-1,1.7327371E-1,6.981629E-1,1.3355535E0,-1.2364628E0,2.0191658E-1,8.821389E-1,-1.9327253E-1,2.9278424E-1,-1.9219875E-1,1.891372E-1,8.317694E-1,-8.644998E-1,1.0231315E0,7.43185E-1,-1.8088613E-1,6.273907E-1,-1.1429243E0,-5.062067E-1,1.1322842E0,2.2046408E-1,5.0401527E-1,-9.555124E-1,-2.1398038E-1,3.435428E-1,-1.8631122E-1,-2.4924214E-1,1.2922252E0,1.9414058E-1,-1.5496483E-1,1.0707757E0,-6.989696E-1,1.8376763E-1,-1.9362374E-1,-8.812853E-1,1.1414692E0,-1.1254503E0,9.3591344E-1,-1.9619653E-1,1.8370895E-1,1.64629E-1,3.4190607E-1,-1.9836883E-1,-4.8280798E-2,-6.270579E-1,1.6051774E-1,1.1875441E0,-2.9773247E-1,1.944884E-1,-1.382186E-1,-4.9743846E-1,-1.9693798E-1,4.577143E-1,-1.6329177E-1,-5.289415E-1,8.4336065E-2,5.892721E-2,2.1433996E-1,5.7530534E-1,1.9520561E-1,-1.8573894E-1,1.2611152E-1,-2.2506094E-1,1.9154863E-1,1.8547854E-1,1.1549393E-2,-5.4624654E-2,-2.0179853E-1,1.0355546E0,-9.103813E-2,-1.3461505E-1,1.2475703E-1,-3.124235E-1,-8.8768375E-1,1.9530964E-1,4.5170864E-1,2.1828628E-1,-1.7459573E-1,-2.0628627E-1,1.4880608E-1,5.153685E-1,-9.532335E-2,-9.570283E-1,2.5408736E-1,-2.6400873E-1,9.8183423E-1,1.844481E-1,8.318457E-1,1.0516494E-1,-1.6614503E-1,-1.7242432E-1,-7.2437716E-1,-1.5496404E-1,-4.8489368E-1,-4.6976443E-2,1.287803E-1,-5.0134536E-2,1.18603624E-1,4.135075E-1,-1.6467588E-1,8.7949574E-1,3.29522E-1,-1.7913385E-1,-2.6684735E-2,-7.265689E-2,1.3039947E-1,-4.387057E-1,1.7944099E-1,-1.7822506E-1,9.0603364E-1,-2.6435485E-1,2.945773E-2,-2.841788E-2,-1.4361285E-1,2.1669721E-2,-1.8238951E-1,8.5281074E-2,-7.658632E-2,1.745906E-1,5.7264462E-2,-1.7891304E-1,5.770488E-1,7.5351834E-2,-1.8343125E-1,1.180857E-2,-6.129421E-2,7.3686534E-1,1.7852746E-1,-8.36074E-2,8.491824E-3,4.980396E-2,-3.8269475E-2,6.7329985E-1,-6.37058E-2,1.7152125E-1,-3.6649615E-2,9.8077476E-2,1.9261315E-1,-1.0785885E-1,8.841041E-2,1.4365706E-1,-1.1575739E-1],"categories":[],"categories_nodes":[],"categories_segments":[],"categories_sizes":[],"default_left":[0,0,0,0,0,0,0,0,0,0,0,0,0,0,0,0,0,0,0,0,0,0,0,0,0,0,0,0,0,0,0,0,0,0,0,0,0,0,0,0,0,0,0,0,0,0,0,0,0,0,0,0,0,0,0,0,0,0,